<?xml version="1.0"?>
<opencv_storage>
<my_svm type_id="opencv-ml-svm">
  <svm_type>C_SVC</svm_type>
  <kernel><type>LINEAR</type></kernel>
  <C>1.0000000000000000e-002</C>
  <term_criteria><epsilon>1.1920928955078125e-007</epsilon>
    <iterations>1000</iterations></term_criteria>
  <var_all>3780</var_all>
  <var_count>3780</var_count>
  <class_count>2</class_count>
  <class_labels type_id="opencv-matrix">
    <rows>1</rows>
    <cols>2</cols>
    <dt>i</dt>
    <data>
      -1 1</data></class_labels>
  <sv_total>1</sv_total>
  <support_vectors>
    <_>
      -7.24310577e-002 4.34098840e-002 4.47073504e-002 -5.97884096e-002
      -5.78110069e-002 -7.61887059e-002 2.50018984e-002 -6.95126690e-003
      -9.75376070e-002 -4.19795103e-002 2.76321694e-002 4.78862636e-002
      -2.52630617e-002 -2.63465233e-002 -5.23250327e-002 2.76454147e-002
      7.68917007e-003 -6.31669313e-002 -6.43289313e-002 1.56436730e-002
      4.59778681e-002 -4.64066453e-002 -6.03798479e-002 -7.00203702e-002
      5.29294498e-002 4.46626060e-002 -7.13835806e-002 -3.90034020e-002
      -5.57930535e-003 4.36499938e-002 -4.63359132e-002 -3.94201316e-002
      -5.80365248e-002 4.01204005e-002 4.30283584e-002 -3.15693207e-002
      -1.57139283e-002 1.59747731e-002 2.32272726e-002 -2.45194063e-002
      -4.74783741e-002 -1.92037206e-002 5.06918877e-002 5.20194173e-002
      -1.66219063e-002 -6.51564524e-002 -4.26817834e-002
      -8.03489611e-003 -6.57243580e-002 -7.51785338e-002
      -4.00622487e-002 8.71287938e-003 1.01393973e-002 -6.15245327e-002
      -2.42155232e-002 6.63687475e-003 3.41984704e-002 -3.66500318e-002
      -1.82156963e-003 -4.91086394e-003 2.38203071e-002 3.10902596e-002
      -2.57993862e-002 -3.50578353e-002 -2.82476749e-002
      -9.76367481e-003 -4.97579761e-002 -3.00577451e-002
      -3.54570113e-002 1.18994201e-002 7.16311438e-003 -3.15583907e-002
      -2.62998063e-002 -2.92254426e-002 1.79660693e-002 1.32937115e-002
      -8.95733107e-003 2.02877866e-003 2.77224239e-002 2.25936007e-002
      -8.22475646e-003 -5.01962118e-002 -2.94936989e-002 6.27071783e-003
      -1.42230578e-002 -3.91723029e-002 -5.63181899e-002 1.13352714e-002
      -4.93441941e-003 -2.90701129e-002 -3.96579020e-002
      -2.08304729e-002 2.66722050e-002 2.15805676e-002 9.70383757e-004
      -8.93919449e-003 3.10680121e-002 2.06687432e-002 -2.79621202e-002
      -4.29529399e-002 1.77645625e-003 -1.96747351e-002 -1.84845217e-002
      -2.26278137e-002 -3.03967334e-002 8.90395325e-003 -2.98853368e-002
      -3.51242311e-002 -2.69692969e-002 -1.94776431e-002
      -1.79578103e-002 -1.28975585e-002 -3.27178389e-002
      -5.48857264e-002 -2.65883356e-002 -2.48459484e-002
      -2.30279081e-002 -1.20523889e-002 -2.30947528e-002
      -9.02430993e-003 -1.59520097e-002 -1.98699031e-002
      -2.06762645e-002 6.24398794e-003 7.73669826e-003 -2.29926989e-003
      1.38808982e-002 -1.99740916e-003 -3.13782655e-002 -2.56009642e-002
      7.38092652e-003 -2.81671844e-002 8.22246016e-004 -3.23041938e-002
      -3.02638928e-003 2.98273060e-002 -4.34240932e-003 1.63371756e-003
      9.22525954e-003 2.10749898e-002 -3.51322093e-003 1.22603951e-002
      -2.26963479e-002 -9.43630654e-003 2.02587768e-002 -1.36473710e-002
      8.44976283e-004 -2.74492931e-002 -4.44620363e-002 -1.15746763e-002
      -6.45833835e-003 -8.18822591e-004 -1.89714972e-003 4.53806855e-002
      1.44228553e-002 2.13633664e-002 -4.02511563e-004 -5.36583029e-002
      1.71639845e-002 1.16509525e-002 -1.01519879e-002 3.72213311e-002
      1.07294563e-002 -3.05759646e-002 7.50981038e-003 1.72308541e-003
      -1.30694511e-003 -2.01401766e-002 -1.36568332e-002
      -5.26777506e-002 -2.13943440e-002 4.53252606e-002 1.52481841e-002
      2.47208327e-002 -1.33106466e-002 -3.64092402e-002 -1.60682872e-002
      2.17873082e-002 -1.15173031e-002 1.94084365e-002 -4.93684039e-003
      -1.64345670e-002 3.08140349e-002 -2.99250074e-002 -7.97120109e-002
      -4.94641624e-003 3.24362749e-003 -4.90883701e-002 -2.05164813e-002
      1.98664516e-002 5.69977537e-002 9.25076976e-002 1.54865151e-002
      -5.23744933e-002 8.87545757e-003 6.27061874e-002 2.10138019e-002
      2.09288802e-002 1.31950052e-002 -3.08781527e-002 2.96050999e-002
      -1.93331856e-002 -5.83121367e-002 -3.50659899e-002 2.03659367e-002
      -4.41285372e-002 -1.36929685e-002 1.80897731e-002 3.61905582e-002
      8.23835135e-002 3.08385268e-002 -2.25393032e-003 3.63712944e-002
      7.26468787e-002 5.63462591e-003 4.59041633e-003 9.00777429e-003
      5.61644882e-003 6.58301786e-002 -2.10832115e-002 -5.26340231e-002
      4.76516114e-004 4.69238721e-002 -2.44527776e-002 2.04071309e-003
      3.79743129e-002 5.03984354e-002 7.81774670e-002 1.84513559e-003
      -3.77397239e-002 2.48329863e-002 6.19660355e-002 -3.15343812e-002
      -2.73585739e-003 -7.72735570e-003 1.94599584e-003 5.22483587e-002
      -3.99142355e-002 -4.15968671e-002 -1.12293079e-003 3.86400744e-002
      -3.48012522e-002 -9.22314450e-003 8.86763912e-003 1.62684843e-002
      3.72949541e-002 -2.35965606e-002 -6.92734681e-003 3.60191576e-002
      7.22299889e-002 -2.54316106e-002 -2.04766486e-002 5.06400727e-002
      4.15299386e-002 3.93926054e-002 -2.55081635e-002 -3.85536700e-002
      -2.38325298e-002 9.03168228e-003 -5.22150174e-002 1.50532294e-002
      7.70297945e-002 5.76256923e-002 4.71399650e-002 1.03310551e-002
      -2.41924580e-002 3.66032915e-003 2.78545488e-002 -3.33605967e-002
      5.01637161e-002 -3.67208180e-004 7.80054461e-003 -3.83585645e-003
      -4.25517373e-002 -2.82447450e-002 -1.55946463e-002 4.31262702e-002
      -3.94038521e-002 -1.68925654e-002 2.34875213e-002 2.24458054e-002
      2.59498376e-002 -2.19787452e-002 -2.97165606e-002 1.30381212e-002
      4.11729105e-002 -5.51574118e-002 -6.03638729e-003 6.66630939e-002
      2.87722182e-002 2.30400693e-002 -1.81208681e-002 -1.46426521e-002
      -1.94381941e-002 1.11191580e-002 -2.95452345e-002 2.62164958e-002
      6.30055517e-002 5.17315492e-002 6.05148301e-002 2.86051165e-002
      6.66075852e-003 2.05634553e-002 3.31957042e-002 -3.81001132e-003
      5.40095121e-002 2.45934017e-002 5.04645007e-003 -1.12585910e-002
      -5.20419590e-002 -3.29035297e-002 -2.59307399e-002 7.69066112e-003
      -5.82720339e-002 -2.76951622e-002 1.25866579e-002 2.53772605e-002
      5.68369068e-002 1.14537477e-002 -8.22444912e-003 1.59219373e-003
      5.90260560e-003 -4.59102355e-002 -2.37542856e-002 3.22863795e-002
      2.79796422e-002 3.81537974e-002 3.21421516e-003 -9.48929228e-003
      -3.32267769e-003 3.08144465e-002 1.54743334e-002 1.50021911e-002
      6.82992488e-002 4.38361168e-002 5.70257306e-002 3.19259018e-002
      2.36472040e-002 4.56865355e-002 5.71304969e-002 3.21385972e-002
      4.19553295e-002 -2.39248257e-002 -4.68038581e-003 5.76170497e-002
      -1.38793737e-002 -2.66815051e-002 -3.62649672e-002
      -5.04770689e-003 -3.69101688e-002 -2.56978124e-002
      -1.60018413e-003 1.46796620e-002 6.06388934e-002 -8.57659429e-003
      8.94059706e-003 -1.06049543e-002 2.83980370e-002 1.01671908e-002
      1.78963318e-002 3.78573090e-002 5.21423621e-003 7.69436266e-003
      -2.74335919e-003 1.15432004e-002 1.79882944e-002 2.45611370e-002
      1.46009242e-002 2.01293379e-002 3.15035135e-002 5.22585539e-003
      9.87229031e-003 -1.05633971e-003 -3.33983335e-003 1.83292050e-002
      3.91074158e-002 1.49938446e-002 3.58605087e-002 1.21847782e-002
      2.31920974e-003 -8.96430982e-004 -4.09839191e-002 6.41317712e-003
      -1.96315460e-002 1.67443119e-002 1.43277648e-004 3.27827446e-002
      2.60775872e-002 -3.12753534e-003 -1.29139628e-002 1.53152281e-002
      2.81326920e-002 4.04815050e-003 1.61878597e-002 -2.26649153e-003
      1.41115524e-002 3.69453989e-002 -2.19060574e-002 -1.50167122e-002
      -1.48994513e-002 -4.90676314e-002 8.27727490e-004 2.55184211e-002
      -8.87666084e-003 1.13883866e-002 7.60740563e-002 1.15449205e-002
      -6.86430791e-003 1.60524156e-002 -1.46258082e-002 4.21793796e-002
      4.28225882e-002 6.00359729e-003 4.87329103e-002 1.09567819e-002
      -2.80441809e-002 3.95850977e-004 1.94533616e-002 -3.41649689e-002
      -6.49583526e-003 -1.57878976e-002 -1.98759045e-002
      -1.07828956e-002 3.21259722e-002 4.56117559e-003 2.44149473e-002
      1.73881296e-002 -2.22700671e-003 2.20494550e-002 6.59173680e-003
      -2.73069385e-002 1.46209253e-002 4.21383940e-002 9.68794920e-004
      -1.95517242e-002 1.51994429e-003 7.37653871e-004 2.11744383e-002
      1.53957037e-002 1.74931018e-003 -1.12858443e-002 -6.02381944e-004
      4.51293439e-002 3.35482508e-002 -1.95195004e-002 1.94759835e-002
      3.88923287e-002 2.33263597e-002 1.91148296e-002 -2.51292903e-002
      1.25287799e-002 -1.22821769e-002 -3.04356264e-003 -3.85849848e-002
      3.01399897e-003 2.90958007e-004 2.14895140e-003 -5.24071753e-002
      -8.81745201e-003 6.14100927e-003 3.75986770e-002 3.33313532e-002
      -7.61818793e-003 5.91375586e-003 6.17858283e-002 4.59426977e-002
      8.50679353e-004 1.38548193e-002 -2.71589179e-002 1.04508922e-002
      2.29376368e-002 -4.40472960e-002 2.73827370e-003 7.07444362e-003
      2.14923043e-002 3.25422958e-002 -4.25689965e-002 1.24807479e-002
      2.91465670e-002 -8.61695781e-003 -2.48330962e-002 3.19076777e-002
      1.20217251e-002 2.55231559e-002 4.83795442e-002 1.18303334e-003
      9.10662394e-003 -8.12315196e-003 1.80804040e-002 -3.27745453e-002
      4.74486267e-003 3.12907249e-002 1.88798327e-002 2.26590410e-002
      -4.93224151e-003 3.63306440e-002 1.92388594e-002 9.47656168e-004
      -2.47822646e-002 4.89962101e-002 1.69016086e-002 3.23749930e-002
      5.84474690e-002 4.18297201e-002 -8.65620002e-003 3.73584218e-002
      -4.31038029e-002 -2.37442721e-002 -8.02831165e-003 2.66949143e-002
      4.10401151e-002 3.08361370e-002 -5.51017746e-002 -6.88208416e-002
      4.89526987e-002 1.92910675e-002 -4.34880471e-003 8.04711657e-004
      1.32105378e-002 5.09642735e-002 5.37499934e-002 -9.85441506e-002
      2.31671007e-003 4.03325371e-002 -2.28573438e-002 -5.82632609e-004
      4.13743919e-003 1.06323585e-002 8.01458489e-003 1.16151490e-003
      -2.33278964e-002 -5.33624291e-002 5.72434478e-002 3.76006775e-002
      2.47364379e-002 2.28043627e-002 1.45387929e-002 3.26970853e-002
      2.90148407e-002 -9.62178856e-002 -3.70856524e-002 2.27673296e-002
      1.57019664e-002 -6.41681105e-002 -4.37806882e-002 -6.20234795e-002
      3.39492932e-002 4.72075976e-002 -1.91646889e-002 -3.63012925e-002
      -1.93813161e-004 2.82022133e-002 -6.67795539e-002 -2.68986970e-002
      -5.20948507e-002 3.01175416e-002 1.17678624e-002 -4.35246788e-002
      -4.86603081e-002 3.93712297e-002 2.91166678e-002 -4.74951230e-002
      -2.59637143e-002 -6.11450784e-002 3.52956657e-003 -1.10428501e-002
      -4.04890180e-002 -2.51044352e-002 -3.15768528e-003 3.04567087e-002
      -6.57565743e-002 -1.43739837e-003 -4.16904464e-002 3.58029529e-002
      -4.71468316e-003 -5.26570417e-002 -5.64077729e-003 1.11662317e-002
      4.09662202e-002 -5.31342328e-002 -3.24968100e-002 -2.32987572e-002
      3.06734256e-002 -1.37640443e-002 -3.97460051e-002 -5.74944466e-002
      1.42989196e-002 2.53987089e-002 -3.57979946e-002 -6.90580383e-002
      -6.09982386e-002 1.10472273e-003 -2.16226913e-002 -5.41158691e-002
      -2.69325376e-002 7.37173017e-003 2.91202851e-002 -4.49086316e-002
      -2.23263614e-002 2.55208486e-003 5.98907843e-002 2.76492778e-002
      -3.35646346e-002 -3.63372043e-002 5.45252003e-002 4.61441688e-002
      -1.96301527e-002 -2.12154575e-002 -6.91105425e-003 4.92004305e-002
      3.91470119e-002 -4.36378233e-002 -2.86895428e-002 -8.79849028e-003
      3.59121375e-002 3.68162338e-003 -3.33304256e-002 -5.38414679e-002
      1.37186665e-002 -4.48122201e-003 -1.74527653e-002 -3.43493558e-002
      -4.06285636e-002 -3.20116244e-002 -5.20993695e-002
      -7.07091019e-002 -7.36905187e-002 -2.16665119e-002
      -4.48895767e-002 -4.43258360e-002 6.04934430e-005 6.10728115e-002
      6.89904392e-002 -3.19020473e-003 -3.48143629e-003 -3.12878788e-002
      3.26101035e-002 4.56728935e-002 -4.33137966e-003 -3.08965631e-002
      4.27493826e-002 2.93863472e-002 -4.73628379e-002 -4.93540056e-002
      -3.53582166e-002 -2.45196521e-002 -5.02511300e-003
      -3.61063108e-002 2.53213961e-002 -1.07631898e-002 -1.90959442e-002
      -1.82145331e-002 -4.18717600e-003 -1.13080358e-002
      -1.05316658e-002 -3.52764726e-002 1.49013205e-002 1.31221740e-002
      -2.67164931e-002 -3.20219211e-002 1.12496419e-002 7.82981049e-003
      -9.01046954e-003 -1.45931281e-002 -4.37673032e-002
      -1.16638849e-002 3.56203280e-002 2.78547350e-002 -3.43368761e-002
      -5.50243556e-002 4.07557702e-003 3.80360638e-003 5.39606530e-003
      -2.23757257e-003 1.52468896e-002 2.20233537e-002 -8.32999684e-003
      -6.24405853e-002 -5.99008761e-002 -2.39521023e-002
      -1.65756128e-003 -1.00512104e-002 7.96897151e-003 4.71276715e-002
      -8.37046560e-003 -6.99815527e-002 -3.77115048e-002 9.58286598e-003
      4.76930407e-004 9.67608579e-003 5.95022133e-003 -3.29154730e-002
      6.64157048e-003 -1.67352520e-002 -3.55136469e-002 3.63822691e-002
      1.28411083e-002 -1.34518333e-002 1.47797754e-002 5.25589623e-002
      9.68100410e-003 5.26554533e-004 -2.77137198e-002 -9.72786248e-002
      -1.11520700e-001 1.02246469e-002 1.48702664e-002 2.35484224e-002
      1.38115101e-002 2.16407925e-002 5.47950231e-002 -4.04387750e-002
      -5.70445098e-002 4.19763662e-002 9.25792456e-002 5.11111654e-002
      4.10282239e-002 2.78226528e-002 2.81994697e-002 2.31378581e-002
      -2.16450561e-002 -5.82133271e-002 2.10183151e-002 -1.40673993e-002
      -3.72202806e-002 -1.19728278e-002 3.90703343e-002 -1.26874652e-002
      -3.67681570e-002 6.91960286e-003 -1.36084412e-003 7.10958764e-002
      2.02481505e-002 -8.00521672e-003 6.60665035e-002 6.36379942e-002
      -1.48757664e-003 -2.35057548e-002 -7.55778775e-002
      -1.15787067e-001 4.64062281e-002 4.06062156e-002 1.10550998e-002
      -1.78938732e-002 2.63462018e-004 -3.75295281e-002 -6.03121752e-003
      -5.79298194e-003 -5.19897267e-002 6.48119673e-002 2.01557633e-002
      4.02165018e-003 1.55191869e-002 1.01049682e-002 -1.78034492e-002
      1.98170450e-002 3.37627460e-003 -1.78018045e-002 4.26115878e-002
      -2.43074670e-002 5.95053518e-003 4.18016575e-002 3.72020863e-002
      -4.25265506e-002 -4.86769341e-002 1.52349882e-002 1.95304230e-002
      2.98375823e-002 -6.38423767e-003 3.15757841e-002 4.35650758e-002
      7.13346228e-002 -2.41731144e-002 -1.62492748e-002 -1.46175483e-002
      -5.39991073e-002 3.87578197e-002 -2.48641297e-002 -3.52720656e-002
      -1.64965224e-002 -2.04827767e-002 -6.00225069e-002
      -2.77255550e-002 -2.04943307e-003 -1.97304972e-002 1.48338284e-002
      -8.39081220e-003 -7.69942999e-003 5.13591245e-003 2.40603462e-002
      -5.51454015e-002 -2.43429057e-002 2.03307178e-002 -7.31534464e-003
      2.74124108e-002 1.42498664e-003 8.30769911e-003 4.47159167e-003
      5.00186644e-002 -2.42972281e-002 3.26473033e-003 -3.77090671e-003
      -3.36262658e-002 3.79485115e-002 4.94209863e-003 -1.68459285e-002
      1.34369498e-002 2.39196867e-002 -1.77329388e-002 1.17075192e-002
      -2.77082045e-002 -5.15974872e-002 1.63516356e-003 1.57272595e-003
      -1.16153259e-003 -8.65736604e-003 -1.56824440e-002
      -3.63176875e-002 -2.34493823e-003 -3.58424336e-002
      -8.02952573e-002 6.30468363e-003 -1.37517778e-002 -2.80947462e-002
      1.64552499e-002 -2.96628270e-002 -2.08334252e-002 -3.64250094e-002
      2.37191580e-002 -2.07999926e-002 7.72090210e-003 -6.71355985e-003
      -3.48015269e-003 5.97511651e-003 8.63207690e-003 -3.43649164e-002
      6.80785859e-003 3.58484350e-002 1.77042093e-002 5.81384525e-002
      4.21051383e-002 2.11010966e-002 3.89551409e-002 3.71832401e-002
      -5.75097604e-003 1.30601525e-002 -1.11799771e-002 -2.66481042e-002
      -6.70817867e-003 -3.92072126e-002 -3.82541940e-002
      -3.35428654e-003 -3.20937894e-002 -2.17415933e-002
      -4.10953127e-002 6.91880425e-003 6.52240124e-003 3.27248164e-002
      -6.38132822e-003 -3.87076326e-002 -1.25799179e-002
      -5.97549020e-004 -1.21618491e-002 -3.18271443e-002 2.67217867e-002
      4.13233340e-002 6.55490309e-002 8.88455566e-003 -2.74833851e-002
      -7.80422101e-003 3.86007354e-002 7.12429080e-003 3.44107412e-002
      5.77242486e-002 6.24959841e-002 4.19693552e-002 2.20762240e-003
      -1.07431468e-002 2.06864327e-002 8.13382864e-002 5.54312505e-002
      1.17218614e-001 4.11612866e-003 6.99230190e-003 4.46352847e-002
      -5.13371341e-002 -8.44981149e-002 -6.86696768e-002
      -2.40193326e-002 -4.85038683e-002 -4.64246329e-003 1.31670488e-002
      1.45071074e-002 3.44750881e-002 -4.59354892e-002 -6.67494163e-002
      -1.80189405e-002 2.44273860e-002 -5.10173617e-003 3.92735600e-002
      9.32166576e-002 2.47064624e-002 6.16700575e-003 -5.25641590e-002
      -3.13041210e-002 5.77379996e-003 2.90881079e-002 1.03341555e-002
      8.46310034e-002 9.71662328e-002 4.43107374e-002 1.44555420e-002
      -6.37773471e-003 -1.85902063e-002 -4.64404840e-003 3.34610343e-002
      3.66645236e-003 5.80125302e-002 3.39803733e-002 -4.75352593e-002
      -1.12097766e-002 -9.25088972e-002 -7.93652236e-002
      -2.63207257e-002 1.62742175e-002 -5.73949376e-003 4.62906174e-002
      1.80703979e-002 -3.08875907e-002 -7.61248963e-003 -5.28576113e-002
      -9.03228149e-002 -4.96583842e-002 7.81745370e-003 -3.30536142e-002
      1.56255569e-002 7.31593147e-002 1.82960536e-002 9.65136290e-003
      -6.37564156e-003 -1.89925320e-002 -3.41759287e-002
      -1.55978032e-005 3.18665872e-003 4.93204072e-002 9.37039927e-002
      3.62343676e-002 4.89483960e-002 -9.63182468e-003 -6.19030837e-003
      2.35398058e-002 3.37081812e-002 3.75048742e-002 8.57060030e-002
      1.45127242e-002 -4.51186933e-002 -2.97403913e-002 -7.31068701e-002
      -6.64306059e-002 -6.39913306e-002 -5.04451916e-002
      -7.91264027e-002 -1.73458818e-003 3.80180441e-002 1.59832258e-002
      -9.44777275e-006 -6.74152598e-002 -6.93201050e-002
      -6.04961719e-003 -2.03148294e-002 -3.11380532e-002 1.29884891e-002
      3.09979264e-002 -2.83081532e-002 -1.75919116e-003 -6.43108711e-002
      -2.37241574e-002 2.14756024e-003 1.95289291e-002 -1.27371391e-002
      3.50000635e-002 3.37663814e-002 3.34401242e-002 2.60530207e-002
      -1.61714125e-002 1.65287796e-002 4.00737189e-002 3.86866890e-002
      1.30126905e-002 3.52150686e-002 2.51436280e-003 1.83489565e-002
      -2.92278379e-002 -5.74285537e-002 -3.18793468e-002
      -2.50829868e-002 -2.14257408e-002 -4.63306792e-002
      -1.20046893e-002 1.31715704e-002 4.11128178e-002 1.79426763e-002
      -1.86242163e-002 1.60422232e-002 1.66478194e-002 3.49722542e-002
      5.08980267e-003 -5.96538931e-003 1.50686894e-002 2.86463872e-002
      1.81750953e-002 -2.48757824e-002 2.11286880e-002 5.31060854e-003
      -6.30414952e-003 -1.24265999e-002 -1.76629629e-002 6.00747485e-003
      4.63787131e-002 -5.25664364e-004 1.33491063e-004 3.65945064e-002
      -2.17493083e-002 4.66751121e-003 5.34848031e-003 6.90733921e-003
      3.16285086e-003 2.87536532e-002 -6.26271125e-003 -3.10853347e-002
      1.84276644e-002 -2.90206689e-002 -2.10086443e-002 5.96837094e-003
      -1.22806085e-002 3.52590054e-004 5.03136851e-002 -9.17260256e-003
      -5.65999537e-004 2.08667740e-002 -4.64716181e-002 -3.23883891e-002
      3.16916294e-002 1.26086259e-002 1.11014978e-003 6.36773631e-002
      -2.09848559e-003 -2.95953755e-003 -1.84520613e-002
      -1.36160953e-002 6.37287553e-003 -6.08621771e-003 -2.38996577e-002
      -4.26543728e-002 5.65921813e-002 2.58626770e-002 3.06574274e-002
      2.97488235e-002 2.45792186e-003 4.06321846e-002 3.03179771e-002
      -1.04497269e-001 -1.42483367e-002 7.09165931e-002 1.46817723e-002
      -9.40563995e-003 -3.45503315e-002 -1.74977854e-002 8.10130034e-004
      2.24891771e-002 -3.52784991e-002 -4.58957851e-002 7.01014251e-002
      2.34649777e-002 -9.88341519e-004 2.32805107e-002 -2.74801278e-003
      3.53606418e-002 6.02298677e-002 -5.78731336e-002 -6.03061877e-002
      1.71865951e-002 -1.81143917e-002 -8.33586082e-002 -1.66714173e-002
      -5.92540205e-002 1.61463413e-002 1.66004188e-002 -3.44466530e-002
      -3.07703707e-002 6.36912091e-003 -1.00220721e-002 -7.42774382e-002
      -2.51226090e-002 -5.93944490e-002 9.71223135e-003 1.10479649e-002
      -5.59670217e-002 -5.79484403e-002 2.14479659e-002 -1.29109062e-003
      -7.39022344e-002 -1.36944614e-002 -7.11000338e-002 4.00626920e-002
      2.39035971e-002 -3.14749368e-002 -4.77306098e-002 1.86496172e-002
      1.85681172e-002 -3.14639173e-002 -1.89220589e-002 -7.60812461e-002
      2.67250277e-002 1.86624695e-002 -5.98510168e-002 -3.54856774e-002
      2.65477411e-002 1.61280911e-002 -3.78985368e-002 -2.00737342e-002
      -2.11626682e-002 3.22505236e-002 3.50814313e-002 -3.34047303e-002
      -6.36856407e-002 -1.32173309e-002 -1.16783194e-002
      -2.43529212e-002 2.80812592e-003 -2.16024648e-002 1.67654045e-002
      3.97332720e-002 -6.87209740e-002 -2.69091018e-002 3.76887247e-002
      -3.35228108e-002 -5.78552410e-002 -3.13942097e-002
      -4.15359102e-002 3.85303013e-002 4.11175452e-002 -3.90826017e-002
      -5.32771535e-002 -2.19751224e-002 -5.83553948e-002
      -5.60918003e-002 1.05274667e-004 6.62160013e-003 5.02244830e-002
      5.25065027e-002 -5.76895811e-002 2.35480722e-003 3.95574719e-002
      5.99665418e-002 4.06649299e-002 4.67101671e-002 1.14385560e-002
      5.17149307e-002 8.52100253e-002 2.21031229e-003 -5.45300283e-002
      1.19895563e-002 3.31911631e-002 -4.25710692e-004 4.15630732e-003
      8.28660000e-003 1.17599475e-003 3.26188356e-002 -4.12002504e-002
      -4.50036414e-002 -6.82072416e-002 -9.21993777e-002
      -5.15665114e-002 1.98397338e-002 3.04271225e-002 6.37183711e-002
      6.29151016e-002 -1.21264234e-002 -1.73368946e-001 -2.14386836e-001
      -1.88416734e-001 -1.40183583e-001 -6.22550137e-002
      -9.10612755e-003 -2.80147344e-002 -4.21867892e-002
      -1.14733361e-001 4.50680442e-002 4.87359986e-002 -1.62773784e-002
      -7.65570998e-003 4.39651720e-002 7.18301684e-002 3.97589952e-002
      5.27971424e-002 1.42005067e-002 7.30857328e-002 -7.27328286e-002
      -1.11203589e-001 -6.66742399e-002 2.42360421e-002 5.45281619e-002
      5.03571006e-003 -2.37011886e-003 7.86667764e-002 -1.05208956e-001
      -1.51866287e-001 -1.25092819e-001 -4.92438860e-002 5.66966049e-002
      4.13328074e-002 -1.44800893e-003 -9.45600048e-002 -1.24494694e-001
      4.03187051e-003 -1.50795877e-001 -2.23090872e-001 -1.23279355e-001
      1.55167961e-002 3.16168293e-002 -5.68134189e-002 -1.07671261e-001
      -1.31060751e-002 -3.15093622e-002 -2.34055161e-001
      -1.74881950e-001 -4.25749049e-002 4.07807939e-002 4.84721996e-002
      -1.68171860e-002 -5.99626824e-003 4.01120894e-002 -8.01865086e-002
      -1.75161064e-001 -1.78765357e-002 9.15473774e-002 7.98605904e-002
      6.13157824e-002 2.86070313e-002 1.19781704e-003 1.43811563e-002
      1.12496698e-002 -2.93641359e-001 -2.80455679e-001 -1.04815900e-001
      3.65336090e-002 2.80722175e-002 -4.15039510e-002 -4.04884927e-002
      6.87505752e-002 -1.74758993e-002 -1.50836229e-001 -5.86243160e-002
      8.87509212e-002 1.16050050e-001 9.07881111e-002 8.00173879e-002
      7.75160789e-002 6.75044507e-002 -1.21186413e-001 -1.60676926e-001
      2.08935607e-002 5.37706204e-002 4.08030003e-002 -4.32863366e-003
      -2.52889767e-002 -8.27581808e-002 -5.94810471e-002
      -9.81729478e-002 -1.25282928e-001 1.20476158e-002 3.45353335e-002
      3.40892449e-002 3.50627140e-003 -2.97043789e-002 -8.25897679e-002
      -4.81451079e-002 -8.53072181e-002 -6.11798875e-002 5.87553121e-002
      9.55821648e-002 9.43562463e-002 3.80138978e-002 2.93583665e-002
      -2.67709326e-002 -9.28286742e-003 -7.36748576e-002
      -4.34797853e-002 9.43553001e-002 1.25533715e-001 1.31240457e-001
      1.00374922e-001 3.63474004e-002 -1.02518061e-002 -4.17844206e-002
      -7.42237940e-002 -1.11945160e-001 6.60770666e-003 1.83130782e-002
      3.24677117e-002 9.20087099e-003 -2.13149786e-002 -7.36941248e-002
      -4.83815372e-002 -8.92161205e-002 -1.12076454e-001
      -2.31867917e-002 3.69704068e-002 4.08340767e-002 2.05465611e-002
      -1.49299670e-002 -6.26404732e-002 -4.82246503e-002
      -4.50941399e-002 -8.17675665e-002 4.58016284e-002 6.41773194e-002
      8.17151517e-002 4.64935452e-002 2.00018622e-002 5.22316527e-003
      -1.33692939e-002 -1.59154981e-002 -5.99942990e-002 3.09043452e-002
      8.04313496e-002 4.35714498e-002 1.93167944e-002 3.15979198e-002
      -6.13045273e-003 -3.09795346e-002 -9.63241458e-002
      -1.37517631e-001 -4.67801504e-002 1.98533051e-002 3.13590877e-002
      1.28645729e-002 -3.67468819e-002 -8.00601467e-002 -6.23312332e-002
      -7.78864771e-002 -1.18626788e-001 2.57309154e-003 -2.55311793e-003
      -8.37098993e-003 3.56415939e-003 -5.16747236e-002 -9.17641819e-002
      -9.42862481e-002 -1.06590101e-002 -2.46166624e-002 3.78516763e-002
      6.19464926e-002 5.04281260e-002 -4.45296429e-003 2.83357538e-002
      -1.72234736e-002 -8.47123470e-003 2.66452407e-004 3.17616872e-002
      9.13801268e-002 1.05162434e-001 3.53631899e-002 1.62290838e-002
      3.07294447e-002 -3.64972353e-002 -4.01772559e-002 -5.17164506e-002
      -4.99631464e-002 1.02650011e-002 1.08163515e-002 -3.66884028e-003
      -6.43441873e-003 -4.95040044e-002 -1.09749921e-001
      -1.32410794e-001 -4.07477804e-002 -7.74727389e-003 2.64356080e-002
      1.03533864e-002 -1.09767560e-002 -2.02830303e-002 -1.93033516e-002
      -5.84003106e-002 -6.79504946e-002 4.48046392e-003 1.35341194e-002
      8.24943930e-002 1.07035309e-001 2.49358043e-002 -2.13577561e-002
      -1.09355040e-002 -6.29902557e-002 -8.57152864e-002
      -6.19363301e-002 2.30824146e-002 6.88844621e-002 1.02013946e-001
      6.99560121e-002 2.53281612e-002 7.70324543e-002 -2.00084806e-003
      -6.56818226e-002 -2.94972584e-002 -1.36352293e-002 4.09725346e-002
      6.32635225e-003 -2.19467338e-002 -5.27364248e-003 1.09066572e-002
      -4.77370322e-002 -1.16979517e-002 -2.92986427e-002
      -1.28049077e-002 5.15057705e-002 3.36585729e-003 -2.41698772e-002
      2.68523693e-002 1.86486561e-002 -5.21418378e-002 9.18885227e-003
      -5.32768629e-002 -1.43643357e-002 7.18630925e-002 1.03578664e-001
      8.11231136e-002 6.74385279e-002 1.01499356e-001 -7.01922225e-004
      -6.30605146e-002 -1.00888401e-001 -6.67781085e-002 7.18857348e-002
      9.79120880e-002 6.75764382e-002 7.68072233e-002 8.22973773e-002
      -3.01500633e-002 -9.49978232e-002 1.71832892e-003 -2.95671523e-002
      4.14740853e-002 -1.64792724e-002 -2.25023814e-002 3.89638916e-002
      5.41526154e-002 -3.74094676e-003 2.69289482e-002 -3.42537872e-002
      -4.39010933e-002 3.63370553e-002 3.34249884e-002 1.99743994e-002
      5.50727956e-002 6.94449395e-002 1.76950190e-002 1.87778864e-002
      -9.79814678e-002 -6.13312237e-002 3.41507904e-002 5.91603629e-002
      4.87616025e-002 5.28761372e-002 7.91041702e-002 -3.95013243e-002
      -9.01647136e-002 -1.39044181e-001 -1.00446962e-001 1.34122465e-002
      6.08940981e-002 7.18164667e-002 7.12871030e-002 7.58610517e-002
      -7.61522427e-002 -1.15086712e-001 -3.56506789e-003
      -2.52965484e-002 4.79687192e-002 4.19418626e-002 4.53278311e-002
      6.39645308e-002 4.15925086e-002 -3.12002748e-002 -5.47199324e-003
      6.45592883e-002 8.95391852e-002 4.44246195e-002 5.03860451e-002
      5.72423860e-002 7.49757290e-002 2.67048944e-002 -6.07263744e-002
      2.72021741e-002 -1.50854111e-001 -1.26615927e-001 -2.90965140e-002
      1.73693635e-002 4.57739644e-002 2.82249209e-002 1.80520862e-002
      -1.32967219e-001 -1.18038826e-001 -8.47564116e-002
      -5.93777597e-002 -6.28187060e-002 -2.04261914e-002
      -2.85352636e-002 -4.31954749e-002 -6.67314753e-002
      -1.76703274e-001 -4.55942452e-002 4.34745625e-002 6.18770383e-002
      -2.11843010e-002 -1.61722722e-003 5.25939465e-003 -2.36680731e-002
      -5.15628271e-002 -9.11281332e-002 -2.51561739e-002 7.42401704e-002
      6.15834780e-002 4.14895676e-002 8.81575346e-002 8.71463120e-002
      7.79600814e-002 4.68371697e-002 2.37661675e-002 3.87043953e-002
      -7.12251896e-003 -2.92567741e-002 -6.78913519e-002
      -6.70690536e-002 -5.10885306e-002 -1.31594718e-001
      -1.22811399e-001 -1.64020225e-001 -2.75749005e-002 5.91627024e-002
      2.23511420e-002 3.61665376e-002 7.35156238e-002 8.77912901e-003
      -1.54344132e-002 1.11596221e-002 -1.19144125e-002 4.53090668e-002
      1.61649343e-002 -2.25497372e-002 -3.89064252e-002 1.09923705e-002
      4.58838046e-002 -3.75166489e-003 -3.18094231e-002 1.99470064e-003
      6.79886295e-003 2.74071172e-002 5.58073819e-003 -1.14435069e-002
      3.61538902e-002 2.70447321e-002 1.88912090e-003 -1.90388821e-002
      3.96004133e-002 4.18985486e-002 1.71607273e-004 -6.60629347e-002
      -6.32975250e-002 -3.37718427e-002 -1.50821060e-002
      -7.41846189e-002 -8.36685076e-002 -5.11658154e-002
      -2.89863627e-002 1.36944484e-002 -4.10153307e-002 -6.56147525e-002
      -2.96351761e-002 -1.64499879e-002 -6.08807988e-002
      -6.76887855e-002 -8.92384164e-003 -1.00618266e-002
      -1.24586960e-002 2.90578008e-002 -8.97908770e-003 -1.70408003e-002
      -6.96366802e-002 -5.01746163e-002 -3.81685272e-002
      -6.36345521e-003 -1.68685559e-002 -3.52667496e-002 6.47931695e-002
      1.54179409e-002 7.54214404e-003 2.95810215e-002 -7.19102332e-003
      1.76951371e-003 4.66094799e-002 -3.61129306e-002 1.74004398e-002
      4.55173617e-003 -2.96463780e-002 -6.04301579e-002 -9.42394733e-002
      -7.47632384e-002 -7.19485581e-002 -7.00524217e-003 2.66648410e-003
      -2.91637797e-003 9.54155251e-002 3.01361661e-002 -1.46501521e-002
      2.94753183e-002 1.12223690e-002 -5.60562243e-004 6.09201863e-002
      9.31626186e-003 -6.07223026e-002 1.99696561e-003 6.63143175e-004
      -4.38045822e-002 -3.51803489e-002 -6.64288178e-002 2.94249225e-002
      6.12519402e-003 -2.70647146e-002 -3.97566073e-002 3.98108549e-002
      3.61730978e-002 -3.56194042e-002 -1.56451110e-002 -5.79095334e-002
      3.75706851e-002 3.49343047e-002 -2.06253529e-002 -4.71907519e-002
      1.57798845e-002 -1.16278483e-002 -4.93413284e-002 -1.44440886e-002
      -5.99810481e-002 1.81907490e-002 1.63090825e-002 -6.77486509e-002
      -1.20581901e-002 4.25783731e-002 2.53759027e-002 -5.25933877e-002
      2.41579525e-002 -2.46317983e-002 6.58650398e-002 3.65471207e-002
      -3.88869196e-002 1.67538750e-003 6.72538951e-002 -7.85552338e-003
      -4.42934297e-002 -2.17846539e-002 -2.21259799e-002 5.92336431e-002
      4.65831943e-002 -1.85408667e-002 -9.90118366e-003 -6.23351615e-003
      -5.76836616e-002 -8.85949805e-002 -7.25178197e-002
      -4.40013446e-002 6.42402694e-002 9.29295495e-002 3.81803082e-004
      2.46761180e-003 1.03053689e-001 7.14488402e-002 -2.76657660e-002
      -3.19058001e-002 -6.84661791e-002 6.14242768e-003 3.56013812e-002
      -2.24851049e-003 -3.07139428e-003 5.61503991e-002 1.35893598e-002
      -4.59636599e-002 -1.15439810e-001 -1.06989875e-001
      -2.80462597e-002 2.98970621e-002 -2.13009585e-002 7.03780502e-002
      -7.34051596e-003 -6.90490380e-002 -7.65068084e-002
      -4.52503003e-002 -2.26642136e-002 5.58701344e-002 9.34879705e-002
      8.91635343e-002 -3.91882882e-002 -1.96674675e-001 -2.08783016e-001
      -1.54275715e-001 -9.60962251e-002 -9.80521739e-002
      -1.09190777e-001 -8.30738917e-002 -3.41584273e-002 8.29124898e-002
      7.58117139e-002 2.80030742e-002 -1.15528079e-002 -7.80069530e-002
      -1.04052857e-001 -6.79947957e-002 2.76284553e-002 6.09944798e-002
      -3.00659686e-002 -1.96066201e-002 -5.84199689e-002
      -8.00255314e-002 -1.25323847e-001 -1.78784683e-001
      -2.39129841e-001 -2.09139228e-001 -1.07181974e-001
      -5.87122440e-002 -1.49228543e-001 -1.21337801e-001
      -5.01965210e-002 6.28590360e-002 -1.74873397e-002 -7.67895058e-002
      -1.21933699e-001 -8.58849436e-002 9.83383283e-002 -6.53592274e-002
      -1.57277644e-001 -6.26661628e-002 2.29927320e-002 -3.95588465e-002
      -9.06185135e-002 -9.16646942e-002 5.01949638e-002 -7.39658847e-002
      -1.26249120e-001 -4.33103889e-002 8.06936715e-003 5.19876145e-002
      -4.10881415e-002 -1.26012266e-001 -1.42495662e-001
      -7.74404258e-002 6.89201877e-002 -8.76704529e-002 -8.80599692e-002
      -3.26101552e-003 3.80277336e-002 -7.19819665e-002 -1.64825514e-001
      -8.09400454e-002 9.26757827e-002 8.45308080e-002 -2.11816251e-001
      -2.82647759e-001 -1.71454370e-001 -8.86381492e-002
      -1.59475163e-001 -1.63549021e-001 -9.83710214e-002 1.08419530e-001
      1.52880967e-001 -4.30098400e-002 -6.04955293e-002 1.96233056e-002
      5.43130301e-002 1.11512579e-002 1.40624065e-002 6.61864057e-002
      2.05242172e-001 9.75012705e-002 -1.16533555e-001 -1.53807729e-001
      -1.01363398e-001 -7.36318007e-002 -2.07653135e-001
      -3.14323097e-001 -2.29953632e-001 6.55000210e-002 1.82753280e-001
      5.28457426e-002 2.21918616e-002 2.92132962e-002 6.60012439e-002
      1.68983787e-002 -5.51978685e-002 -2.25990433e-002 1.40441537e-001
      1.90758314e-002 -6.35087937e-002 -1.62056293e-002 -2.93476577e-003
      1.99232213e-002 -4.10256572e-002 -3.91835347e-002 -4.78964485e-002
      3.77550609e-002 -8.19248054e-003 -2.95211822e-002 1.22627299e-002
      3.95380296e-002 6.64374679e-002 3.85652632e-002 2.00101268e-003
      -2.06388645e-002 -8.70422740e-003 3.13768536e-002 -3.85506079e-002
      -2.57706754e-002 -7.74310157e-003 3.58232297e-002 8.44999682e-003
      -3.75957862e-002 -6.10737130e-002 1.22492500e-002 -1.27214193e-002
      2.12025340e-003 1.82859562e-002 4.20498624e-002 9.53075141e-002
      6.14458174e-002 1.40258549e-002 -5.83314290e-003 -6.02345972e-004
      7.14076534e-002 -4.99500893e-002 -3.10834646e-002 -3.46095525e-002
      -8.72183032e-003 -4.92965505e-002 -1.83139313e-002
      -2.80872155e-002 5.40018678e-002 1.18647419e-001 -5.35303494e-003
      -2.63002850e-002 -4.67431061e-002 -8.38261619e-002
      -1.12854898e-001 -2.64515579e-002 -2.17230227e-002 9.79361385e-002
      4.36857082e-002 4.82091535e-004 -1.07387658e-002 -3.00045107e-002
      1.56298988e-002 -1.71489920e-002 -1.99760050e-002 -3.57312039e-002
      3.01370490e-002 8.68191123e-002 1.64146088e-002 -2.62595415e-002
      -9.15225744e-002 -6.81710541e-002 -3.87486480e-002 6.08590432e-003
      4.70732246e-003 6.97618797e-002 1.51175380e-001 9.69435379e-004
      -3.05491071e-002 -8.80930275e-002 -1.17842272e-001
      -1.28012285e-001 -2.94668749e-002 -3.91335525e-002 9.87382457e-002
      1.08879939e-001 1.05594173e-002 2.98414696e-002 -8.34522676e-003
      -5.05405106e-002 -4.79233488e-002 -3.04190144e-002
      -6.33444116e-002 8.37823674e-002 9.54104960e-002 -1.07052149e-002
      -4.62671816e-002 -1.20802283e-001 -1.16857745e-001
      -7.64816552e-002 3.07098543e-003 -2.39837728e-002 8.17471966e-002
      8.69878456e-002 -4.71632406e-002 6.70285197e-004 -6.42069057e-002
      -5.45302443e-002 1.60592329e-002 2.89681964e-002 -1.55964296e-003
      9.35523957e-002 1.00238048e-001 1.46639943e-002 4.17350531e-002
      5.08458354e-002 -4.31010779e-003 -2.50842012e-002 -6.42796140e-003
      -2.85575874e-002 4.10934985e-002 -6.90450743e-002 -4.92674410e-002
      6.54498069e-003 3.14976610e-002 7.22135883e-003 -2.34098118e-002
      1.31983366e-002 -7.19672889e-002 -5.48674464e-002 5.03379330e-002
      -2.77777053e-002 3.19549553e-002 7.65695760e-004 1.04094669e-002
      6.78905770e-002 4.71753851e-002 2.61426456e-002 9.42705572e-002
      -3.94814610e-002 -7.39964545e-002 1.99797340e-002 -1.24415839e-002
      -4.39686188e-003 4.27064113e-002 3.21107768e-002 -1.08625954e-002
      -4.35819626e-002 -6.86945841e-002 -7.59970695e-002 6.90497011e-002
      1.13025352e-001 1.07605487e-001 6.00287095e-002 8.04991797e-002
      -4.22328385e-003 -6.26742765e-002 -1.22808591e-001
      -1.41345531e-001 6.31758645e-002 1.18921734e-001 1.09227709e-001
      7.14547262e-002 5.33531979e-002 -6.35774434e-002 -8.25415552e-002
      -3.61668989e-002 -1.69941243e-002 1.00518681e-001 8.84078518e-002
      1.09156020e-001 9.31002945e-002 6.59517944e-002 -3.64091545e-002
      -5.97405359e-002 -9.41952318e-002 -5.17959557e-002 7.29740411e-002
      9.70114097e-002 8.23820606e-002 8.12584832e-002 4.44745161e-002
      -1.28948942e-001 -9.84261185e-002 -8.79001915e-002
      -7.88714811e-002 5.83595634e-002 1.16864108e-001 1.34194061e-001
      7.44542554e-002 9.70870703e-002 -7.15047354e-003 -7.82457218e-002
      -1.38439640e-001 -1.20715246e-001 1.91563368e-002 9.75958705e-002
      1.19916841e-001 8.99921507e-002 6.24262802e-002 -7.69703016e-002
      -1.31909609e-001 -9.45790708e-002 -1.06770312e-002 9.53452066e-002
      1.07113183e-001 1.21404603e-001 8.93952474e-002 4.71585318e-002
      -7.93098137e-002 -7.91516677e-002 -1.29259780e-001
      -1.05624929e-001 4.35556062e-002 9.80852842e-002 1.06210366e-001
      9.50697586e-002 2.41437480e-002 -1.12290613e-001 -1.23077892e-001
      -1.03682734e-001 -8.74099508e-002 -4.82003484e-003 5.72237521e-002
      9.61132869e-002 6.36145100e-002 2.38478705e-002 -4.74738181e-002
      -1.16270274e-001 -9.89590399e-003 -2.91042514e-002
      -1.63233874e-003 -3.92632140e-003 -4.10512947e-002
      -4.84483726e-002 -1.93104278e-002 -5.64869195e-002 7.55311130e-003
      -1.21150181e-001 -8.34656209e-002 1.34948930e-002 4.57122438e-002
      7.45280236e-002 6.02471419e-002 -5.15860993e-005 -1.06655531e-001
      -1.10983759e-001 1.22495880e-002 -4.75891605e-002 1.16648257e-003
      -2.81086005e-002 -6.72333315e-002 9.75291524e-003 1.23346085e-002
      -3.99962254e-002 -9.12527740e-003 4.38905284e-002 -4.82158223e-003
      -2.62397639e-002 -1.18897207e-001 -1.55299336e-001
      -1.79797903e-001 -7.46029168e-002 -6.14067614e-002 1.10442359e-002
      1.13149934e-001 5.67675419e-002 9.80898067e-002 7.35702366e-002
      1.13053815e-002 5.82936369e-002 6.84773028e-002 4.48224321e-002
      1.06731802e-001 -3.57825984e-003 -5.06317616e-002 -6.05019592e-002
      -1.66962802e-001 -1.52802974e-001 -1.07279606e-001
      -2.16826461e-002 -2.40660664e-002 4.06579599e-002 1.07887842e-001
      4.84620892e-002 5.51985465e-002 2.28802245e-002 1.49301225e-002
      1.14257447e-001 1.10353105e-001 6.48761019e-002 1.25960723e-001
      -3.99718620e-003 -3.10122166e-002 -2.18207063e-003
      -1.27503416e-002 5.56650572e-002 -5.10725984e-003 -2.79546548e-002
      -3.49706374e-002 -1.74407866e-002 -1.37879892e-004
      -1.06788278e-002 -3.65945958e-002 -3.55195515e-002
      -2.24019121e-003 -5.17859757e-002 -3.05511784e-002
      -6.67079072e-003 1.43740186e-002 -1.52107822e-002 -3.92817520e-002
      -3.56477648e-002 -6.98515354e-003 5.64816520e-002 1.66380554e-002
      -2.48043034e-002 -2.96897311e-002 2.47694440e-002 -3.03051826e-002
      -1.52991619e-002 -4.91499715e-002 -1.38707841e-002
      -2.59986464e-002 -5.07543497e-002 -7.36618042e-002
      -5.06343041e-003 -2.05893088e-002 -6.44080387e-003 2.15779543e-002
      -1.91878602e-002 -8.96888599e-002 -1.27890944e-001
      -8.86287242e-002 -2.95837522e-002 1.22325188e-002 7.67967245e-003
      2.28100773e-002 1.13317288e-001 5.25864474e-002 9.35823936e-003
      2.83780564e-002 7.64596881e-003 2.65070777e-002 1.01228192e-001
      2.91834027e-002 -2.76437718e-002 -1.28524872e-002 -6.43979684e-002
      -7.14029670e-002 -1.20491855e-001 -1.00191347e-001
      -3.88707854e-002 1.15128178e-002 -2.24184413e-002 3.68459933e-002
      1.09827206e-001 2.55297124e-002 3.33815590e-002 1.25866085e-002
      -2.04051491e-002 3.98472063e-002 1.21931151e-001 2.81605367e-002
      -2.61317063e-002 -1.31075392e-002 -2.33477037e-002
      -6.14640824e-002 -1.90441404e-002 -7.44878426e-002
      -1.19597875e-002 2.73695923e-002 -5.58680259e-002 -2.09936779e-002
      8.63849372e-003 2.82320585e-002 -6.66127130e-002 -2.39913352e-002
      -4.61636037e-002 2.63752304e-002 3.30076069e-002 -3.89245935e-002
      -4.34801057e-002 1.91181786e-002 2.68343184e-002 -5.75670600e-002
      -3.86618301e-002 -7.23057911e-002 -2.68298958e-004 2.51768380e-002
      -7.00496808e-002 -2.80742496e-002 7.88572524e-003 3.25287841e-002
      -5.49049750e-002 -5.32592908e-002 -8.41810927e-002
      -1.93159487e-002 2.42342707e-002 -4.29926477e-002 7.47526344e-003
      9.45915133e-002 8.32900107e-002 -7.45207537e-003 -1.08104749e-002
      -4.70182151e-002 -2.59474907e-002 2.87236143e-002 -2.03111600e-002
      -2.77891625e-002 6.47011772e-002 4.89861891e-002 1.35156866e-002
      -2.38645133e-002 -6.94818795e-002 -6.78367838e-002
      -2.95085274e-002 -7.60363340e-002 -2.52221134e-002 7.76218325e-002
      7.29437172e-002 -1.28048239e-002 -2.08439510e-002 -3.28385308e-002
      1.15464367e-002 4.34812605e-002 -3.36836465e-002 -8.19778070e-002
      4.55677658e-002 9.07740928e-003 2.18541874e-003 -1.30290007e-002
      -3.22128087e-002 -1.77363772e-002 -1.30379768e-002
      -8.35186318e-002 -8.66471324e-003 5.90927862e-002 5.94473183e-002
      3.05374246e-002 4.22699377e-003 -7.74083510e-002 -1.14653252e-001
      -5.44876195e-002 -4.07926291e-002 -1.11001015e-001
      -3.07084899e-002 -2.17742869e-003 1.42746409e-002 -1.57991685e-002
      -1.24243073e-001 -1.96894407e-001 -2.05341414e-001
      -1.76013127e-001 -3.65316719e-002 5.92624098e-002 2.41398290e-002
      1.80208236e-002 3.50440741e-002 -6.22067275e-003 1.40945101e-002
      1.56253893e-002 -4.36600782e-002 -6.30417243e-002 7.27263791e-003
      1.78061351e-002 3.53639806e-003 -4.71131364e-003 -8.38979613e-003
      1.14147076e-002 -4.01022518e-003 -5.59874848e-002 -1.41748980e-001
      -1.40197068e-001 -2.17858292e-002 4.24170122e-002 6.81929216e-002
      -6.53533563e-002 -1.12400755e-001 -9.90133137e-002
      -1.14531092e-001 -1.90199371e-002 -1.49606749e-001
      -5.64489812e-002 5.48935607e-002 3.36337499e-002 -1.30289569e-001
      -2.17612669e-001 -1.13511965e-001 9.08273179e-003 -2.23889165e-002
      2.60274531e-003 2.37674303e-002 2.73926631e-002 4.36392892e-003
      -2.64730752e-002 -1.74941160e-002 3.64100114e-002 2.71888301e-002
      4.59314361e-002 4.44013113e-003 3.18832160e-003 4.97157276e-002
      1.17145060e-002 -6.06152341e-002 -8.54071602e-002 -3.91906835e-002
      7.53413960e-002 8.62030238e-002 -7.43607432e-002 -4.87157591e-002
      3.82697433e-002 3.53263654e-002 -1.04667522e-001 -2.74823368e-001
      -2.72551775e-001 1.21369055e-002 7.60463402e-002 4.72255796e-002
      6.55346662e-002 9.78614613e-002 1.27968907e-001 9.12205875e-002
      -3.19018178e-002 -1.71784818e-001 -2.51419600e-002 3.28664370e-002
      -3.09784170e-002 -3.14906277e-002 4.84786965e-002 2.77997237e-002
      -1.98853984e-002 -1.32727161e-001 -2.22412542e-001
      -3.66436616e-002 -1.93164777e-002 -2.25013159e-002
      -3.74367204e-003 8.83723274e-002 8.19576010e-002 8.40907320e-002
      8.66219867e-003 -1.58197641e-001 -8.61012414e-002 -7.84973241e-003
      -6.62992243e-003 9.21792444e-003 5.16058765e-002 1.15316175e-001
      9.98437405e-002 8.21587890e-002 -1.01770677e-001 -7.89401680e-002
      -2.89206840e-002 6.43044431e-003 3.33478339e-002 7.81457797e-002
      1.49082124e-001 1.12080634e-001 8.12505111e-002 -7.13743418e-002
      -5.95175773e-002 -8.14103857e-002 -8.11145306e-002
      -3.16542611e-002 2.49315724e-002 4.76880781e-002 5.66081218e-002
      5.00378981e-002 -1.38181493e-001 -1.27940759e-001 -4.69064154e-002
      -6.81441575e-002 -1.59244370e-002 -2.32804523e-005 1.76602341e-002
      2.48739664e-002 1.48436967e-002 -1.06301345e-001 -7.77339712e-002
      9.36631637e-004 3.20545472e-002 3.20829153e-002 5.43289334e-002
      1.10452451e-001 6.55852407e-002 2.04036850e-002 -8.22662413e-002
      -5.66904694e-002 -7.57554499e-003 1.37371775e-002 3.28417905e-002
      5.04864641e-002 6.54186532e-002 7.42705241e-002 2.90186200e-002
      -6.71298653e-002 -2.95396037e-002 -2.51032580e-002
      -2.80275065e-002 -8.77852831e-003 1.62886025e-003 8.21997784e-003
      -1.56712066e-002 -2.05849968e-002 -9.00195241e-002
      -8.44097883e-002 -4.81235795e-002 -3.09677999e-002 2.76555587e-003
      3.32485475e-002 1.99516453e-002 7.48964865e-003 -3.15957926e-002
      -9.32792574e-002 -8.86340886e-002 -1.18000722e-002
      -3.15383039e-002 2.16324050e-002 2.34497767e-002 5.98875247e-002
      8.16992372e-002 4.71737981e-002 -3.96904424e-002 -5.78846224e-002
      -8.34696554e-003 -2.05706526e-002 3.21222134e-002 2.32779654e-003
      5.70212975e-002 9.90124196e-002 9.30773020e-002 1.78423971e-002
      -2.69823298e-002 -8.06609169e-002 -6.96252212e-002
      -1.37088690e-002 2.18274686e-002 1.78391207e-002 2.45899726e-002
      -1.12148067e-002 -1.00802667e-001 -1.12338237e-001
      -9.89665538e-002 -5.11550382e-002 -2.37816479e-002
      -4.16072309e-002 -2.69303489e-002 2.44678501e-002 5.89902923e-002
      -5.13456054e-002 -1.05377622e-001 -2.80527920e-002
      -4.25342992e-002 -1.13539805e-003 -1.91533733e-002 4.52993400e-002
      1.00730844e-001 9.57714170e-002 4.30210531e-002 -8.82759783e-003
      -2.88008153e-002 4.34037251e-003 6.33422360e-002 1.71290431e-002
      3.37570384e-002 8.39669853e-002 8.28674659e-002 4.17422913e-002
      -6.74913898e-002 -9.77311730e-002 -6.33704290e-002
      -7.50125851e-003 -2.98300665e-002 -1.94611307e-002 2.94667594e-002
      7.12402835e-002 6.28024014e-003 -7.82266110e-002 -9.15671140e-002
      -9.88349877e-003 3.14506181e-002 -9.72656254e-003 -3.95812355e-002
      3.67707238e-002 6.37014657e-002 5.81014017e-003 -7.26578832e-002
      -3.52072343e-002 1.89296715e-002 1.05603866e-001 5.28610945e-002
      8.52025077e-002 7.89126754e-002 5.55456802e-002 -4.61781444e-003
      -4.20477130e-002 -9.10546258e-002 -1.99730992e-002 8.86229575e-002
      5.41452169e-002 4.88409139e-002 5.02711795e-002 4.35339846e-002
      -3.70564573e-002 -7.41274878e-002 -4.84473705e-002
      -1.84390545e-002 4.86827530e-002 1.77518129e-002 -2.50318795e-002
      3.76511142e-002 5.67063391e-002 3.75374896e-003 -6.05361275e-002
      -2.57408712e-002 -4.30091843e-002 5.35190925e-002 3.67129184e-002
      -2.10386384e-002 1.09955119e-002 4.49127369e-002 -6.52534982e-006
      -5.88498898e-002 -9.44991708e-002 -5.69552332e-002 4.84842174e-002
      4.98234779e-002 4.95493524e-002 3.23409475e-002 2.79533789e-002
      -5.20579442e-002 -6.03330061e-002 -1.23294726e-001
      -1.00129262e-001 5.39670289e-002 6.73067942e-002 9.22180340e-002
      4.56806906e-002 8.39325879e-003 -1.39920622e-001 -9.68773663e-002
      1.79090875e-003 -7.81826861e-003 5.36879748e-002 3.80984060e-002
      -1.68773830e-002 -2.25231331e-003 4.40149754e-002 5.14976773e-003
      5.45394578e-005 2.02845503e-003 -5.52417291e-003 6.81674480e-002
      4.15170603e-002 2.73775607e-002 3.62238325e-002 3.23355123e-002
      -1.06615685e-002 4.31441562e-003 -1.19429976e-001 -1.50524527e-001
      -1.48757333e-002 1.44490674e-002 2.85370797e-002 -1.14210024e-002
      -4.97775488e-002 -1.66431889e-001 -1.05340980e-001
      -5.91173545e-002 -1.45703882e-001 -6.36085868e-002
      -2.96478774e-002 -3.45041156e-002 -1.37007441e-002
      -2.31410135e-002 -7.81340674e-002 -6.31916896e-002
      -4.37493762e-003 -5.80805466e-002 1.05562387e-002 3.23422365e-002
      3.78673747e-002 2.91902479e-002 3.12056709e-002 -1.57976579e-002
      1.27429152e-002 3.40811461e-002 -4.66694236e-002 2.08214261e-002
      4.82812300e-002 7.64771104e-002 7.31071606e-002 8.62532109e-002
      9.25998464e-002 8.58759135e-002 -5.04766740e-002 -1.43840790e-001
      -1.07426032e-001 -1.37556881e-001 -7.83450902e-002
      -5.72417863e-002 -2.98981387e-002 -2.38129403e-002 1.11822356e-002
      3.92899998e-002 -3.94537188e-002 -1.57200955e-002 -8.59462749e-003
      7.27613689e-003 9.10449028e-002 5.87584190e-002 4.00402993e-002
      8.06578472e-002 -4.15387228e-002 -7.95488060e-002 -4.00141887e-002
      -3.72761600e-002 1.11307427e-002 1.66271664e-002 1.74709186e-002
      6.42686263e-002 2.94120517e-002 1.62626598e-002 3.57546192e-003
      4.14950214e-002 5.19786626e-002 5.02049923e-002 9.67295468e-002
      7.06879273e-002 8.80205482e-002 6.35498688e-002 -4.51666750e-002
      -7.63641000e-002 -8.58593136e-002 -3.84366550e-002 1.05851274e-002
      -1.14473365e-002 -5.04905321e-002 -4.65854295e-002 1.39060253e-002
      -4.06253934e-002 -2.65955981e-002 -7.75804818e-002
      -4.23241109e-002 -2.08647810e-002 -5.91826886e-002
      -7.92942345e-002 -2.43207961e-002 2.13164859e-003 -3.02559193e-002
      -2.04987321e-002 -8.32888298e-003 2.03350582e-003 4.14233021e-002
      2.87272427e-002 -1.16132181e-002 -6.25509536e-003 1.29621224e-002
      1.84246600e-002 3.97058763e-002 1.88382789e-002 1.74339078e-002
      1.39566939e-002 1.12559525e-002 -1.05135376e-002 2.37771254e-002
      1.69503354e-002 -1.39980484e-002 -2.79520657e-002 -7.36448690e-002
      -6.44152313e-002 -8.44528079e-002 -7.78358132e-002
      -4.11489420e-002 -6.00914750e-003 1.80249033e-003 2.80942512e-003
      4.31485809e-002 -2.24236818e-003 1.78948585e-002 -3.39235342e-003
      -2.07021497e-002 3.99251878e-002 9.20473784e-002 2.29693167e-002
      -3.11993007e-002 2.79676006e-003 -2.28844211e-002 -3.21771130e-002
      -7.43818432e-002 -3.06149572e-002 1.30692369e-003 1.28517104e-002
      -4.48932536e-002 -2.91933678e-002 6.57752976e-002 3.05607892e-003
      -1.56761836e-002 -2.46531293e-002 -1.41754067e-002 1.24881687e-002
      6.42749518e-002 -4.01826240e-002 -3.67335230e-002 5.67118861e-002
      3.15905288e-002 -2.53445134e-002 -1.41093004e-002 -4.56472337e-002
      3.88875641e-002 3.25657092e-002 -6.58083409e-002 -2.40414552e-002
      2.59529799e-002 1.61957312e-002 -5.22166900e-002 -2.50619575e-002
      -5.02414741e-002 2.04688590e-002 3.97570282e-002 -1.26219457e-002
      -3.51342931e-002 5.14729992e-002 2.03615353e-002 -2.90660057e-002
      -1.26076592e-002 -7.34817907e-002 1.44059500e-002 2.63434323e-003
      -6.70613945e-002 -4.85373251e-002 2.05527134e-002 -1.21322274e-002
      -6.08815849e-002 -3.81288491e-002 -6.12368509e-002 3.29847186e-004
      1.63323563e-002 -4.06436250e-002 7.89763778e-003 6.21538870e-002
      4.71623950e-002 -2.33485959e-002 -2.01467462e-002 -2.64680963e-002
      3.10343672e-002 5.22567555e-002 3.02688982e-002 -2.46281065e-002
      6.62955418e-002 3.25623788e-002 -1.49933640e-002 -3.07659600e-002
      -2.94462033e-002 2.06175670e-002 4.63727042e-002 -2.53600385e-002
      -4.96207401e-002 1.75020881e-002 1.48191387e-002 -4.40387614e-002
      -3.74466069e-002 -6.06491417e-002 5.56302583e-003 3.88843082e-002
      -6.10475847e-003 -6.26561865e-002 -5.27812028e-003 6.18632184e-004
      -4.85390387e-002 -4.23034392e-002 -5.38103022e-002 5.78803243e-003
      2.77488437e-002 -7.12637529e-002 8.58707447e-003 6.14548810e-002
      1.83156580e-002 -1.68192014e-002 6.02335786e-005 -3.32293510e-002
      1.76336188e-002 3.80627997e-002 -9.68251750e-003 -2.49767844e-002
      -4.04617004e-003 -5.62490849e-003 -4.33982871e-002
      -4.07933258e-002 -5.52696362e-002 3.82631309e-002 3.21751311e-002
      -4.20056516e-003 -4.68252674e-002 9.27980710e-003 -8.13924894e-003
      -4.87336703e-002 -2.30409391e-002 -3.42903323e-002 2.34821886e-002
      2.81798597e-002 -3.95506173e-002 -5.55059202e-002 -5.43503389e-002
      -3.25994678e-002 -9.77218822e-002 -6.91750720e-002
      -3.27971205e-002 -1.44935923e-003 -2.05457979e-003
      -2.35459656e-002 1.23650124e-002 -5.63706132e-003 2.34650867e-003
      -1.79428682e-002 -1.31682074e-002 -4.56251837e-002
      -1.35473572e-002 1.71858743e-002 3.63655165e-002 4.21037488e-002
      3.48876081e-002 -4.45023971e-003 5.42605063e-003 1.12786544e-002
      -3.78190838e-002 -3.91730890e-002 -2.41383445e-002 2.82986630e-002
      -3.58263142e-002 -3.71808335e-002 -1.21059250e-002
      -3.88260633e-002 -3.36359255e-002 -2.39177104e-002
      -9.36134811e-003 -1.62997954e-002 7.43724080e-003 -3.24751474e-002
      -1.56299584e-002 -8.02161451e-003 1.41189471e-002 1.16634183e-002
      6.26911223e-003 -3.41949202e-002 -4.87165377e-002 -2.20346842e-002
      6.02047294e-002 -1.86160412e-002 -1.61061008e-002 3.70267667e-002
      4.50623110e-002 1.70680117e-002 -5.79021573e-002 -1.15364939e-001
      -3.32447886e-002 4.15282175e-002 6.39187917e-003 1.63500533e-002
      6.51888698e-002 6.11582845e-002 8.14798921e-002 6.53361604e-002
      -3.89214233e-002 -1.50856329e-002 2.33896845e-003 -1.48228575e-002
      1.32398084e-002 9.80078150e-003 1.68886571e-003 1.07665518e-002
      -3.80147509e-002 -8.73396099e-002 -3.86156365e-002 1.84759460e-002
      -1.26013663e-002 4.88727614e-002 3.62843387e-002 -1.38177741e-002
      2.67589968e-002 1.82238258e-002 -3.57639343e-002 -2.20095124e-002
      -6.26568310e-003 -4.59718741e-002 7.86249898e-003 5.46232797e-003
      1.44527871e-002 5.54382801e-002 6.57289773e-002 -7.46726990e-002
      -5.21782450e-002 2.02306043e-002 -5.69865387e-003 2.99409926e-002
      9.72384959e-003 3.18157636e-002 4.22687195e-002 8.01061988e-002
      7.74521241e-003 -3.21709272e-003 -2.79353186e-002 -4.54601161e-002
      3.06029264e-002 1.78896803e-002 -1.82596724e-002 2.29427237e-002
      -6.30567456e-003 -6.49902821e-002 -4.04066332e-002
      -2.09908206e-002 3.39777814e-003 4.67050672e-002 6.86171949e-002
      2.08616126e-002 6.08184524e-002 6.76812008e-002 2.25020833e-002
      -9.73195245e-004 2.64005922e-002 -3.48346308e-002 -1.15353242e-002
      -2.29780916e-002 -2.18924638e-002 -3.21153961e-002 3.69037092e-002
      -4.14102105e-003 -6.08645845e-003 1.41902678e-002 -3.86241265e-002
      3.83282118e-002 -1.80976326e-003 -1.13691045e-002 -2.11683251e-002
      1.33140562e-002 -1.42495502e-002 1.60073694e-002 -6.28254786e-002
      -3.30681875e-002 1.44042149e-002 1.45440651e-002 8.82027112e-003
      -1.05533060e-002 2.39195488e-002 -1.40599236e-002 -2.52395663e-002
      -1.38485236e-002 -2.32219435e-002 8.20010975e-002 4.68701646e-002
      1.70290917e-002 -3.57051753e-003 2.46321112e-002 -8.18302017e-003
      2.35784445e-002 -2.12108009e-002 -3.38183977e-002 1.23726418e-002
      -2.12834291e-002 6.31200662e-003 -3.42978723e-002 -9.47416201e-003
      -5.11230715e-002 -6.25236018e-004 -4.00894247e-002
      -2.11044922e-002 -6.49880269e-004 -1.51335979e-002
      -1.90928672e-002 -2.88797636e-003 2.92943344e-002 -3.43365110e-002
      -1.60249695e-002 9.32781585e-003 -2.44533159e-002 5.96438423e-002
      5.84153738e-003 -6.07629446e-003 -2.59339958e-002 9.45708808e-003
      -7.33052567e-003 5.12034260e-002 1.43429302e-002 7.43237650e-003
      2.56193001e-002 2.59290449e-003 -1.92283392e-002 -1.64123606e-002
      4.28615138e-002 2.49213427e-002 1.96319968e-002 -3.31482440e-002
      -4.64459881e-002 9.13730729e-003 -2.92509124e-002 -1.09136961e-002
      1.51580535e-002 3.29536982e-002 -7.85115641e-003 -2.52271611e-002
      -1.38211492e-002 -1.48783475e-002 4.99579087e-002 -1.70140807e-002
      -2.13596374e-002 -9.67979711e-003 2.30104625e-002 -6.11193571e-003
      -1.62067637e-002 1.75916515e-002 -1.62625723e-002 -1.67256116e-003
      -1.76153407e-002 -1.41312985e-003 -2.44967267e-002 1.06855445e-002
      4.67093894e-003 2.93221045e-002 1.64643731e-002 -1.36855589e-002
      5.00642024e-002 1.33907571e-002 2.12966688e-002 4.44236491e-003
      3.33588943e-002 9.46624763e-003 2.57544592e-002 -3.63302939e-002
      -4.78349514e-002 2.52125487e-002 -4.25714478e-002 -5.25476411e-002
      -2.38100570e-002 3.08538880e-002 -6.93212589e-003 -8.81655235e-003
      2.21386715e-003 -1.22835068e-002 6.62687346e-002 7.99396262e-003
      -3.95437367e-002 -2.49635391e-002 2.13117595e-003 -3.37507343e-003
      1.29003692e-002 2.96543390e-002 -5.53044211e-003 7.74833485e-002
      1.35940854e-002 -8.94124527e-003 -4.74349922e-003 3.19526568e-002
      1.99516341e-002 3.46476734e-002 6.67466521e-002 3.15049961e-002
      1.16890416e-001 3.11418045e-002 -2.35335734e-002 -1.14382543e-002
      2.35404037e-002 3.22878323e-002 6.09318316e-002 3.34889032e-002
      -3.92765692e-003 1.72423199e-002 -3.14995162e-002 -7.03436658e-002
      -8.03560317e-002 -2.69489232e-002 -4.66259755e-002 9.12131835e-003
      4.31123488e-002 4.85077221e-003 9.92968958e-003 -4.43434566e-002
      -4.87553254e-002 -6.51974082e-002 -1.79480743e-002
      -1.94092002e-002 3.45868357e-002 5.97229041e-002 3.83908749e-002
      5.71937002e-002 -4.86753229e-003 -3.27741243e-002 -7.21892044e-002
      -6.15253625e-003 8.86721630e-003 5.75225241e-002 4.41661328e-002
      4.73729186e-002 5.26598208e-002 -2.12566387e-002 -9.81865730e-003
      -2.28776429e-002 3.57375517e-002 2.78909039e-002 6.61553591e-002
      4.42034705e-003 -5.76438941e-002 -5.64319603e-002 -8.54441747e-002
      -8.00829008e-002 -8.91420916e-002 -4.15155925e-002
      -3.58961076e-002 1.94030590e-002 2.91029718e-002 -2.73929164e-002
      3.73708596e-003 -3.71049568e-002 -3.53657492e-002 -3.03681456e-002
      -2.07438297e-003 8.98148573e-004 5.45869730e-002 3.57880071e-002
      4.78027482e-003 4.94023226e-003 -5.45088723e-002 -4.04143482e-002
      -2.66529601e-002 2.89190840e-003 2.43976042e-002 6.67819902e-002
      7.52235129e-002 3.63055430e-002 5.44862449e-002 2.21505407e-002
      1.94981806e-002 1.86266601e-002 3.63189615e-002 5.34902848e-002
      9.48272049e-002 -1.07423859e-002 -2.92553380e-002 -1.32079767e-002
      -4.37980928e-002 -3.29136811e-002 -4.19174805e-002
      -2.07146760e-002 -9.87558067e-003 1.01690069e-002 2.39742268e-002
      1.39911929e-002 1.27168922e-002 -6.95542991e-003 -1.20156817e-002
      4.77811228e-003 1.92664529e-003 2.64318772e-002 1.99868586e-002
      4.58385348e-002 1.14149358e-002 3.18016298e-002 -3.49966716e-003
      1.81838358e-003 -1.48239871e-002 1.41911274e-002 -1.05664628e-002
      4.99991402e-002 4.96006832e-002 4.05991897e-002 2.64040325e-002
      2.46394668e-002 -4.40548919e-003 -1.85623430e-002 3.96897048e-002
      2.86651012e-002 1.13079837e-002 -7.51791662e-003 7.34769553e-003
      -2.15109743e-004 -3.17483842e-002 -1.52644413e-002
      -4.19059303e-003 -1.92307550e-002 2.96251439e-002 2.83926930e-002
      2.98792347e-002 3.09461318e-002 1.76309468e-003 -3.00512672e-003
      1.85490903e-002 -1.31254233e-002 -1.29163489e-002 4.85939458e-002
      2.41880808e-002 1.07073477e-002 1.70123316e-002 1.77848351e-003
      -3.04283947e-003 -2.01389641e-002 -3.23759168e-002
      -6.04707468e-003 2.71632522e-002 5.91350487e-003 2.04163957e-002
      6.44019386e-003 3.08338925e-003 8.81342869e-003 1.17722657e-002
      -2.02713609e-002 -5.76242944e-003 5.02505787e-002 1.62627976e-002
      -1.73819568e-002 3.18637826e-002 1.88536849e-002 6.17705192e-003
      -8.55033007e-003 -7.97673222e-003 -1.21976389e-002 3.90283242e-002
      -3.03948056e-002 -4.54956703e-002 7.92611167e-002 3.64448577e-002
      -8.51336960e-003 -1.48923195e-003 -1.15489662e-002 9.66351945e-003
      7.20040947e-002 -6.03840575e-002 -7.82595889e-004 -6.31043920e-004
      1.54236183e-002 5.87081909e-003 -1.48737226e-002 -3.12395003e-002
      -1.70777459e-002 5.31566776e-002 -1.85015507e-003 -8.87632072e-002
      3.82190011e-002 5.62109388e-002 -5.58781438e-004 4.25294563e-002
      2.73164222e-003 3.46574374e-002 5.49329408e-002 -7.38994554e-002
      -5.01953326e-002 4.07551229e-002 6.90275207e-002 -3.20556834e-002
      -9.72966012e-003 -4.23841737e-002 6.19792715e-002 4.47780490e-002
      -5.77437095e-002 -4.36047427e-002 3.68170403e-002 2.60700025e-002
      -2.59354543e-002 -5.12098148e-002 -4.23689634e-002 3.39752585e-002
      1.95358116e-002 -2.83299778e-002 -9.32439566e-002 2.02000309e-002
      3.53406966e-002 -5.25891520e-002 -5.44310026e-002 -9.03252959e-002
      3.32012624e-002 4.38952856e-002 -9.27904472e-002 -5.88277169e-002
      1.16120223e-002 3.79528068e-002 -4.34175283e-002 -8.45732540e-002
      -8.04449767e-002 1.83720626e-002 2.14848835e-002 -6.02543466e-002
      -1.70387831e-002 4.27120738e-002 3.63193303e-002 4.15607821e-003
      3.78990802e-003 -3.48063745e-002 2.12802365e-002 3.26636210e-002
      -1.21723851e-002 -6.13440759e-002 1.38900764e-002 6.24662684e-003
      -1.31853195e-002 -1.07131703e-002 -2.45432705e-002 2.91396026e-002
      -1.17962174e-002 -5.88314533e-002 -2.60920152e-002 2.77843922e-002
      3.32463942e-002 -3.01495790e-002 -6.01414032e-002 -4.04217765e-002
      1.25559010e-002 1.52320629e-002 -2.82500274e-002 -7.46154189e-002
      1.96279231e-002 2.35756114e-003 -4.53494452e-002 -6.62232414e-002
      -5.83261624e-002 2.86583155e-002 -4.21767868e-002 -7.47248158e-002
      -4.72860001e-002 8.95273592e-003 1.36699136e-002 2.16324022e-003
      2.11714581e-002 1.24488352e-003 4.46194112e-002 -8.43115151e-003
      -5.46011589e-002 -4.48380671e-002 -3.82551998e-002
      -1.43910600e-002 -3.74987572e-002 -3.42783891e-002
      -9.46595520e-003 9.82455444e-004 -1.46576948e-002 -4.76060361e-002
      -4.76278551e-002 6.87663350e-003 2.47241668e-002 -1.79754458e-002
      -2.13509407e-002 -8.32228735e-003 4.50845668e-003 -4.10434753e-002
      -6.61206543e-002 -3.37147750e-002 -3.57155949e-002
      -4.54318197e-003 -2.84893997e-002 -4.91656549e-002
      -4.85602347e-003 6.72807731e-003 -3.63200940e-002 -5.24736196e-002
      -3.39061953e-002 -3.11103184e-002 -2.53532138e-002
      -3.12278066e-002 -4.82304804e-002 -4.66192104e-002
      -3.43983658e-002 -2.94505022e-002 -1.03077544e-002
      -1.84824914e-002 -2.74130106e-002 1.57197472e-002 1.81552712e-002
      2.20395401e-002 1.11047570e-002 4.42066323e-003 -1.50343170e-003
      1.02567412e-002 -1.13379564e-002 -2.33366881e-002 -4.60655093e-002
      -3.74615006e-002 -8.25563073e-002 -6.46936148e-002
      -4.68404368e-002 -4.32478301e-002 -2.13206280e-002
      -1.20538510e-002 -2.56897751e-002 -1.98630616e-002
      -3.09044663e-002 -3.75224277e-002 -1.79680493e-002
      -3.63312699e-002 -4.40871082e-002 -2.32359376e-002
      -1.56743824e-002 -6.86367601e-002 1.58254392e-004 -5.66921523e-003
      3.70710331e-004 1.71170272e-002 1.41955065e-002 -1.92591287e-002
      1.81849599e-002 2.71787625e-002 -2.76562050e-002 2.44434979e-002
      2.47790683e-002 -4.27687876e-002 2.50236085e-003 1.05513940e-002
      -1.76388193e-002 1.51945502e-002 -3.20142088e-003 -3.36041413e-002
      -2.81432923e-002 -2.98359394e-002 -6.71335310e-002
      -2.99110748e-002 1.15887960e-002 3.28566588e-004 2.03573667e-002
      4.00815569e-002 -6.37042196e-003 -5.10082813e-003 2.60529155e-003
      -8.42150971e-002 -2.29950696e-002 4.53598984e-002 5.42836934e-002
      4.44488563e-002 -7.00252084e-003 -4.60060425e-002 3.42394114e-002
      2.56125480e-002 -4.73751947e-002 -1.40261846e-002 -1.05982115e-002
      -6.70328140e-002 -4.03277501e-002 1.23516028e-003 -2.59259567e-002
      4.45537344e-002 4.48791571e-002 -1.33795384e-002 1.77110173e-002
      6.82551488e-002 2.22787727e-002 -5.54964133e-003 1.20215621e-002
      -3.03344075e-002 1.83847931e-003 -5.54176373e-003 -8.51938352e-002
      -4.39302996e-002 2.16173921e-002 6.46278542e-003 1.23010501e-002
      3.57582197e-002 3.99304833e-003 6.73194304e-002 2.50791330e-002
      -7.66364783e-002 1.90030001e-002 1.02885880e-001 3.78077216e-002
      1.88867338e-002 -1.46672642e-002 -5.50733060e-002 2.79444344e-002
      -7.74822989e-003 -3.88985835e-002 -3.84152159e-002 2.98023503e-002
      -2.31037047e-002 -3.16421241e-002 3.11669218e-003 -1.82498507e-002
      8.19984004e-002 5.45390435e-002 -1.77040230e-003 -1.10359099e-002
      2.72815526e-002 -2.54619326e-002 1.21284332e-002 -8.64809204e-004
      -3.95121165e-002 6.66668788e-002 -3.32173961e-003 -7.08878115e-002
      -1.12111066e-002 4.83412407e-002 -7.96410535e-003 -6.41196547e-003
      1.12896208e-002 -3.04883979e-002 8.15443844e-002 2.90878154e-002
      -4.99113537e-002 -2.63053761e-003 3.61066163e-002 -7.23109406e-004
      2.89519262e-002 2.04964564e-003 -4.97357734e-002 6.41116798e-002
      2.20234450e-002 -3.74601036e-002 -3.69377434e-002 1.41624110e-002
      -7.21058296e-003 2.68340036e-002 -6.34300290e-003 -4.29934375e-002
      3.00187264e-002 1.66321285e-002 -3.47877406e-002 -2.08662394e-002
      3.61229964e-002 3.06743998e-002 3.17731611e-002 -5.68791945e-003
      -4.21651900e-002 5.25594540e-002 8.58555827e-003 -6.09729625e-002
      -2.64531337e-002 3.62969488e-002 1.49770845e-002 1.79296304e-002
      -1.05153471e-002 -3.54756862e-002 3.16003151e-002 2.24642418e-002
      -5.98270446e-002 5.30014466e-003 4.90949266e-002 6.36546761e-002
      2.18010768e-002 6.33311598e-003 -3.70732062e-002 -2.28403043e-002
      -6.25808910e-002 -4.52015400e-002 -6.15538992e-002
      -5.08721638e-003 8.93801916e-003 5.15833460e-002 1.88779999e-002
      -3.14122997e-002 1.36892060e-002 -2.98545994e-002 -1.21387029e-002
      -3.30784321e-002 5.86284930e-003 -6.86341198e-003 6.14699759e-002
      1.11208558e-002 -2.40230355e-002 -1.71312820e-002 -4.14335504e-002
      -3.97072360e-002 -2.38471124e-002 3.31529528e-002 5.27642630e-002
      7.68143088e-002 4.38703559e-002 -3.08108758e-002 1.68594141e-002
      -9.86420549e-003 -1.93482470e-002 1.05137676e-002 3.03506460e-002
      5.06741889e-002 6.60993680e-002 2.66158544e-002 -3.84783261e-002
      3.26128155e-002 -3.05639263e-002 -6.48623658e-003 -4.07845788e-002
      -9.60052572e-003 -2.26256475e-002 4.29267809e-002 3.06539889e-002
      -1.25932600e-002 4.48890962e-002 1.04417522e-002 -4.13783267e-003
      -1.43449530e-002 3.10137067e-002 2.01700930e-003 3.27241309e-002
      -5.14539517e-003 -4.51190919e-002 1.83085687e-002 -4.60448489e-002
      1.05627766e-003 -1.87015776e-002 3.20674181e-002 3.96325886e-002
      2.71409936e-002 2.82389559e-002 -9.92678199e-003 4.42413911e-002
      2.39818133e-002 -7.97690358e-003 2.01512687e-002 7.52630755e-002
      7.14109614e-002 7.37727657e-002 3.72176394e-002 9.58946254e-003
      2.89161745e-002 -1.16803106e-002 -1.04691843e-002 -4.77752052e-002
      -2.41741166e-003 -4.54995279e-005 2.66920142e-002 4.27007340e-002
      1.64028574e-002 4.64753211e-002 2.98470091e-002 4.68079709e-002
      9.66896769e-003 2.30203904e-002 -3.30763170e-003 5.53608537e-002
      2.84679290e-002 -1.45010813e-003 4.15166728e-002 -1.34977233e-002
      -4.44597676e-002 -4.04626131e-002 -1.58307552e-002 3.26688476e-002
      4.56776619e-002 6.11298233e-002 3.20903654e-003 6.45392761e-002
      3.11025735e-002 -1.16036413e-002 -1.57606471e-002 -2.19502505e-002
      1.73567012e-002 3.77656817e-002 1.43175116e-002 -1.97727457e-002
      -1.43508818e-002 -1.25915231e-002 -4.09350637e-003 9.62006976e-004
      -2.10780576e-002 -1.69339441e-002 1.49969617e-002 4.55004089e-002
      -1.38260387e-002 3.31474319e-002 4.41116355e-002 1.49875116e-002
      2.83327289e-002 2.10015830e-002 2.57103126e-002 6.54993653e-002
      1.07953409e-002 -2.66775712e-002 8.92904308e-003 9.19190142e-003
      -2.57125385e-002 -3.93207408e-002 -3.97656485e-002
      -1.54220453e-002 1.00888880e-002 2.12187432e-002 -6.90003857e-003
      4.50312719e-002 5.29390574e-002 -1.09410090e-002 1.06933806e-002
      5.51119354e-003 1.22842789e-002 6.12968914e-002 1.59737691e-002
      -3.50257196e-002 3.48518416e-002 3.26369889e-003 4.66506602e-003
      -1.81607753e-002 -1.66134816e-002 -5.96858375e-003 3.93119380e-002
      3.67096066e-002 1.23959212e-002 3.71310897e-002 4.40888591e-002
      2.13210061e-002 -7.93758873e-003 1.74106006e-002 3.60695459e-002
      3.97587344e-002 -2.16237307e-002 -2.86558066e-002 2.71672215e-002
      3.44231492e-003 -4.58755121e-002 -2.44759768e-002 -1.92252602e-002
      -1.47047788e-002 2.39082202e-002 -7.04262406e-003 2.16917903e-003
      4.82766442e-002 1.50135560e-002 9.52512212e-003 -9.53433849e-003
      2.91415472e-002 2.99487188e-002 3.18382010e-002 1.07316338e-002
      6.86912611e-003 4.48939065e-003 2.14970391e-002 1.21659311e-002
      -2.14807168e-002 -6.34075375e-003 -7.48509192e-004 1.82713512e-002
      7.04920618e-003 1.42908292e-002 8.62102956e-003 2.25363276e-003
      6.74031954e-003 -1.69141069e-002 -1.12328641e-002 1.20687047e-002
      2.68862080e-002 -1.93420472e-003 1.06804408e-002 3.43583748e-002
      3.07666697e-002 -9.71181551e-004 -3.16747837e-002 1.39226792e-002
      9.21833143e-003 1.60787143e-002 -1.81269106e-002 3.42422281e-003
      9.23055969e-003 3.80656421e-002 2.20718030e-002 -1.63960904e-002
      4.85230889e-003 2.29545813e-002 -6.46532234e-003 -2.50665620e-002
      6.16982765e-003 1.04847001e-002 1.83339370e-003 1.52636729e-002
      -9.49515309e-003 2.16699927e-003 2.56858692e-002 -6.92272652e-003
      -8.08274671e-002 3.39701213e-002 2.38382574e-002 6.66174665e-003
      4.57204841e-002 9.52681247e-003 7.53037110e-002 2.96847261e-002
      -6.32119104e-002 -5.81702441e-002 2.08327752e-002 2.06043683e-002
      2.22059917e-002 2.14950205e-003 -1.30930748e-002 -7.39127025e-003
      1.08867660e-002 -5.02612032e-002 -9.32424963e-002 4.55826297e-002
      3.36607471e-002 3.28253582e-002 3.05076372e-002 2.50013005e-002
      7.37748742e-002 4.85597216e-002 -9.07436162e-002</_></support_vectors>
  <decision_functions>
    <_>
      <sv_count>1</sv_count>
      <rho>-4.5283965592708117e+000</rho>
      <alpha>
        1.</alpha>
      <index>
        0</index></_></decision_functions></my_svm>
</opencv_storage>
