<?xml version="1.0"?>
<opencv_storage>
<my_svm type_id="opencv-ml-svm">
  <svm_type>C_SVC</svm_type>
  <kernel><type>LINEAR</type></kernel>
  <C>1.0000000000000000e-002</C>
  <term_criteria><epsilon>1.1920928955078125e-007</epsilon>
    <iterations>1000</iterations></term_criteria>
  <var_all>3780</var_all>
  <var_count>3780</var_count>
  <class_count>2</class_count>
  <class_labels type_id="opencv-matrix">
    <rows>1</rows>
    <cols>2</cols>
    <dt>i</dt>
    <data>
      -1 1</data></class_labels>
  <sv_total>1</sv_total>
  <support_vectors>
    <_>
      -7.22150579e-002 3.65299843e-002 4.78611104e-002 -5.63358031e-002
      -6.49124309e-002 -7.04813078e-002 3.23524028e-002 -4.12278855e-003
      -1.06598385e-001 -5.30011989e-002 2.73201596e-002 5.39511628e-002
      -2.62943059e-002 -4.44114022e-002 -5.13941795e-002 2.98838709e-002
      -2.80488282e-003 -7.57427365e-002 -5.63648492e-002 1.71341691e-002
      4.81151864e-002 -4.67078984e-002 -5.90991862e-002 -6.24278784e-002
      5.76755144e-002 5.02096042e-002 -5.79897948e-002 -3.00582126e-002
      1.09938916e-003 4.37363572e-002 -4.97687273e-002 -4.73150834e-002
      -5.52472100e-002 3.50027271e-002 3.65913026e-002 -1.98516045e-002
      -1.49910394e-002 1.86776817e-002 3.07487771e-002 -1.80251691e-002
      -4.63629253e-002 -1.75795797e-002 5.52727543e-002 4.29559201e-002
      -2.26290412e-002 -6.73642009e-002 -5.14061414e-002
      -3.03551066e-003 -6.21493794e-002 -7.71077573e-002
      -4.87823598e-002 6.79044705e-003 5.45463292e-003 -5.80648296e-002
      -9.93258134e-003 1.58877634e-002 3.22866216e-002 -3.68393771e-002
      -1.70867681e-003 2.94564967e-003 2.37695463e-002 2.96026170e-002
      -2.38364711e-002 -4.06837538e-002 -2.87436601e-002
      -2.86513777e-003 -5.67322411e-002 -4.14847806e-002
      -3.81041355e-002 1.58771444e-002 1.04249343e-002 -3.27914990e-002
      -2.20524091e-002 -3.29772308e-002 2.34676991e-002 5.96556347e-003
      -1.59106497e-002 -7.07538892e-003 2.64149383e-002 1.93139836e-002
      -6.98643783e-003 -4.68508378e-002 -1.95127111e-002 2.20767576e-002
      -1.36501556e-002 -4.80889976e-002 -5.35362810e-002 2.19767261e-003
      -1.16059743e-002 -3.40548828e-002 -3.18814591e-002
      -1.34616988e-002 4.68459949e-002 2.00319793e-002 -1.33220563e-002
      -1.08436113e-002 2.77253147e-002 1.73304509e-002 -2.69982480e-002
      -3.65398750e-002 5.84903220e-003 3.85860074e-003 -1.40245631e-002
      -3.23135406e-002 -3.34959999e-002 2.46977154e-003 -2.89760139e-002
      -2.96565592e-002 -3.10181510e-002 -1.45713231e-002
      -9.76132974e-003 -8.49023741e-003 -3.08685452e-002
      -4.00262997e-002 -3.44327651e-002 -3.26865613e-002
      -3.67057063e-002 -1.25184888e-002 -1.63752101e-002 5.43038920e-003
      1.75954564e-003 -1.16524976e-002 -1.83988418e-002 5.22103859e-003
      1.82402530e-003 -4.94200038e-003 1.97217334e-002 2.12547346e-003
      -1.92055628e-002 -2.74948422e-002 -1.33500877e-003
      -2.91375909e-002 -1.93339831e-003 -4.06331792e-002
      -1.18811131e-002 3.08470242e-002 -3.66038713e-003 1.40699390e-002
      1.61224511e-002 2.61718575e-002 -9.08377115e-003 1.40641108e-002
      -2.26242337e-002 -1.25029786e-002 1.27331642e-002 -1.18707295e-003
      1.61263328e-002 -1.59158632e-002 -4.24539819e-002 -1.64112635e-002
      -9.33940988e-003 -3.41225369e-003 -1.06816953e-002 3.84585299e-002
      2.13052426e-002 1.34374416e-002 -7.16402894e-003 -5.91538474e-002
      1.18732117e-002 5.40559459e-003 -1.15325279e-003 3.99184711e-002
      1.23701356e-002 -3.64878960e-002 1.29856560e-002 9.89957713e-003
      5.73099777e-003 -1.99363716e-002 -3.77260870e-003 -4.91655879e-002
      -1.54125849e-002 3.67740467e-002 4.98443097e-003 2.47097164e-002
      -5.81720192e-003 -4.05771919e-002 -2.67988816e-003 3.64975296e-002
      -1.05325284e-003 2.62988023e-002 -8.69020727e-003 -6.02901308e-003
      2.03232057e-002 -2.84279250e-002 -8.93401578e-002 -6.12219097e-003
      7.44521897e-003 -3.70764397e-002 -1.46558946e-002 1.04362937e-002
      6.65878430e-002 1.00152820e-001 3.32403556e-002 -4.00081128e-002
      1.63296517e-002 5.35374060e-002 2.66861115e-002 1.20403823e-002
      5.59606403e-003 -4.44648750e-002 1.55126993e-002 -1.47218676e-002
      -5.37274890e-002 -1.76634584e-002 3.33590321e-002 -3.70875411e-002
      -8.46755318e-003 1.43971136e-002 2.61811875e-002 7.12075382e-002
      4.00086567e-002 7.17711961e-003 3.27176265e-002 5.88446259e-002
      -1.74973553e-004 -2.87766312e-003 2.66717235e-003 5.86584350e-003
      6.79275393e-002 -1.65346898e-002 -5.46133779e-002 1.63651479e-003
      3.91902067e-002 -2.11310759e-002 -1.25513750e-003 3.94088030e-002
      4.23250087e-002 7.13471919e-002 6.60684891e-004 -3.06056812e-002
      2.95697302e-002 6.29461929e-002 -2.16532759e-002 7.99786299e-003
      -1.24653289e-002 2.55917269e-003 5.36325350e-002 -3.60332392e-002
      -3.75123173e-002 -1.34123107e-002 2.26884242e-002 -4.07715924e-002
      -1.67692173e-002 1.92117952e-002 1.46811232e-002 4.12412025e-002
      -1.62972957e-002 4.32842132e-003 2.75692586e-002 6.27177656e-002
      -2.46151201e-002 -1.43424431e-002 5.03900126e-002 2.79150587e-002
      2.85384394e-002 -2.63519641e-002 -3.66101004e-002 -2.61223204e-002
      1.88173018e-002 -4.02487479e-002 2.03005150e-002 7.66936168e-002
      5.25586568e-002 4.70866561e-002 2.32859720e-002 -1.18231690e-002
      1.39251295e-002 4.29954678e-002 -2.11625695e-002 4.81998026e-002
      8.98570195e-003 -3.73107428e-003 -9.94754117e-003 -3.90215367e-002
      -1.70678925e-002 -2.60964688e-002 2.43281778e-002 -4.54339609e-002
      -1.86074525e-002 2.43443716e-002 1.96260754e-002 2.60706004e-002
      -3.38037615e-003 -1.68148931e-002 2.04036832e-002 3.62593271e-002
      -5.77265620e-002 -9.84376855e-003 6.37200549e-002 2.64955070e-002
      2.95853112e-002 -9.29911621e-003 2.43428745e-003 -1.67560168e-002
      2.50469893e-002 -2.01312974e-002 2.70030089e-002 4.98978645e-002
      4.99592908e-002 5.98724745e-002 2.65311245e-002 1.78645067e-002
      1.40941422e-002 3.55352350e-002 1.70217734e-003 5.19023575e-002
      2.06759069e-002 4.15257970e-003 -6.52528089e-003 -3.58540975e-002
      -1.72205959e-002 -1.63630322e-002 1.37764364e-002 -4.09513116e-002
      -2.43877266e-002 9.67352185e-003 2.36488935e-002 5.31668402e-002
      1.59417670e-002 1.09863072e-003 -4.08048555e-003 1.48664387e-002
      -3.69901620e-002 -2.17863191e-002 2.66751256e-002 3.23436260e-002
      2.84531545e-002 -4.92149964e-003 5.03941090e-004 -4.89758421e-003
      2.84438226e-002 2.08654702e-002 1.13792457e-002 6.19588420e-002
      5.89865446e-002 4.90533002e-002 1.36328200e-002 1.58387423e-002
      5.07109687e-002 5.13395481e-002 2.89653782e-002 4.02034111e-002
      -2.38693468e-002 1.52553245e-003 5.80580980e-002 -6.09987928e-003
      -1.56149734e-002 -3.52014713e-002 1.07648794e-003 -2.61546634e-002
      -1.63090564e-002 3.91682331e-003 1.69802103e-002 5.84937222e-002
      -6.03013858e-003 5.01281954e-003 2.42105467e-004 2.58251671e-002
      1.62436776e-002 2.83690095e-002 3.64663266e-002 1.27962073e-002
      5.84133854e-003 -5.59568778e-003 1.61201451e-002 1.76185910e-002
      2.53183879e-002 9.51463729e-003 1.42180705e-002 4.64938357e-002
      7.71195116e-003 1.63721424e-002 -5.17243613e-003 2.40438478e-003
      3.44940163e-002 4.50760797e-002 1.34797413e-002 3.94194648e-002
      6.25981716e-003 1.12800009e-003 4.87393420e-003 -3.67212258e-002
      9.96186398e-003 -1.40315499e-002 2.08110977e-002 1.84958801e-003
      2.77686846e-002 2.46764868e-002 -1.40134459e-002 -1.48268593e-002
      2.03534379e-003 2.94761620e-002 7.36761093e-003 2.32394543e-002
      3.51841422e-003 2.34713070e-002 4.31336239e-002 -1.97730288e-002
      -1.31035121e-002 -2.07052454e-002 -3.10153216e-002 1.60334259e-002
      2.71355994e-002 -9.06042103e-003 1.11981668e-002 7.89144561e-002
      1.85867138e-002 -5.46470098e-003 1.24111092e-002 -1.72312129e-002
      3.40246856e-002 3.48722041e-002 8.90431087e-003 4.98321950e-002
      4.21167910e-003 -3.38129476e-002 -6.45600609e-004 9.24422592e-003
      -2.99363751e-002 -3.40914913e-003 -1.76574923e-002
      -2.40993239e-002 -1.01523995e-002 3.82332951e-002 -1.69462862e-003
      1.95905641e-002 1.21403090e-003 -5.14084101e-003 5.66619402e-003
      3.88820702e-003 -2.76546385e-002 1.18928635e-002 6.35852516e-002
      9.03953798e-003 -1.64077450e-002 4.99645481e-004 -8.87599774e-003
      1.08006690e-002 7.76876509e-003 7.78052490e-003 3.18686664e-003
      2.04897784e-002 4.33151461e-002 3.41158696e-002 -1.78638492e-002
      1.78103466e-002 3.10040396e-002 7.61099858e-003 5.45116328e-003
      -1.76802240e-002 2.50919536e-002 -1.41646769e-002 -4.29807417e-003
      -5.18405773e-002 -7.75401434e-003 -1.86639803e-003 1.13185188e-002
      -4.56462279e-002 8.34637613e-004 8.87890812e-003 3.28735262e-002
      2.85585430e-002 -1.18660647e-002 3.87997250e-003 5.27812093e-002
      4.11283113e-002 2.68978416e-003 2.47079786e-002 -1.09132975e-002
      1.45798102e-002 3.44959460e-002 -3.88341136e-002 9.67319589e-003
      1.57363117e-002 1.56955235e-002 2.39759833e-002 -4.43247668e-002
      1.16754742e-002 2.75728069e-002 4.67247097e-004 -2.54291911e-002
      3.98566239e-002 2.43194718e-002 2.79909968e-002 4.24936675e-002
      -3.74440011e-003 6.92255143e-003 -3.56199802e-003 2.32764930e-002
      -3.24746668e-002 5.78210736e-003 3.53225991e-002 1.33481296e-002
      2.15882044e-002 -2.93670222e-003 3.33671793e-002 2.53666677e-002
      4.27373406e-003 -3.50237116e-002 4.08268906e-002 1.67759135e-002
      3.68005782e-002 6.86758608e-002 4.11618128e-002 -1.54254548e-002
      3.83830629e-002 -2.85383258e-002 -7.96512421e-003 6.98115444e-003
      3.09727713e-002 3.13091390e-002 2.73703039e-002 -6.00416288e-002
      -6.58434257e-002 6.09629788e-002 3.31434011e-002 8.75159074e-003
      9.78996977e-003 1.49619207e-002 4.10564020e-002 5.53344078e-002
      -9.23873410e-002 -3.40569392e-003 3.94884683e-002 -1.87044665e-002
      -5.74105280e-003 4.16327547e-003 1.04970913e-002 1.09557007e-002
      1.53532661e-002 -1.97338462e-002 -5.18687069e-002 5.68003766e-002
      4.10349593e-002 2.76083201e-002 3.36736515e-002 1.81584023e-002
      2.47609392e-002 3.86254601e-002 -8.24674517e-002 -2.91956980e-002
      1.42562287e-002 9.63127799e-003 -6.76209480e-002 -4.66665700e-002
      -6.69829920e-002 3.19328792e-002 4.56002057e-002 -1.23175224e-002
      -2.81428155e-002 4.24176781e-003 2.01162044e-002 -7.22072199e-002
      -2.71684136e-002 -4.83878627e-002 2.07274798e-002 1.11810341e-002
      -3.76720130e-002 -5.03755100e-002 3.79523300e-002 2.48170178e-002
      -4.32364680e-002 -2.18972433e-002 -7.53298029e-002
      -7.46366568e-004 -1.26728779e-002 -4.86447662e-002
      -1.84809156e-002 9.59212426e-003 2.29257531e-002 -6.52776510e-002
      -8.47085193e-003 -3.79766449e-002 4.22355346e-002 -1.03699020e-003
      -5.59736937e-002 -1.77810012e-004 2.10099630e-002 3.81789394e-002
      -5.92774898e-002 -3.46106775e-002 -1.45853907e-002 3.00567616e-002
      -1.26728313e-002 -3.72479521e-002 -5.31275198e-002 2.02591233e-002
      3.03520802e-002 -3.93551476e-002 -8.01896304e-002 -6.28532618e-002
      -3.86284984e-004 -2.79811453e-002 -5.70616908e-002
      -2.32961718e-002 2.39059106e-002 2.96947192e-002 -4.05891836e-002
      -3.02210674e-002 5.65776881e-003 5.90922609e-002 2.27923244e-002
      -3.44965979e-002 -3.81351039e-002 4.90006469e-002 4.19563688e-002
      -3.13989446e-002 -3.27782407e-002 -2.18454916e-002 3.86129841e-002
      3.05561144e-002 -5.57276532e-002 -2.70335469e-002 -5.09496545e-003
      3.93773168e-002 7.83119525e-004 -4.08420339e-002 -6.37836903e-002
      1.21216727e-002 -1.18490318e-002 -1.92493740e-002 -2.76754666e-002
      -3.57197747e-002 -2.39068251e-002 -4.42488045e-002
      -7.60053247e-002 -7.68368989e-002 -1.65493693e-002
      -4.49388102e-002 -5.07586673e-002 3.04635335e-003 6.65191114e-002
      7.68570006e-002 -7.68610043e-003 -1.90479178e-002 -4.12039049e-002
      2.92382278e-002 4.76018749e-002 -1.13393916e-002 -3.51240225e-002
      5.64504080e-002 3.50772999e-002 -4.81134839e-002 -5.69742583e-002
      -3.79061326e-002 -1.70293339e-002 -1.02229677e-002
      -4.44350317e-002 2.16122884e-002 -9.76454560e-003 -1.23884939e-002
      -1.54039888e-002 -1.42438989e-002 -1.64054744e-002
      -3.92588461e-003 -3.28771472e-002 -5.21062175e-003 8.68802983e-003
      -3.31762545e-002 -2.56804675e-002 1.74603928e-002 1.16216550e-002
      -1.59927681e-002 -1.50291575e-002 -3.44700254e-002
      -1.65868532e-002 2.56449580e-002 2.72138491e-002 -2.97323968e-002
      -4.57563698e-002 6.91051362e-003 -4.30987542e-003 -1.23087248e-005
      -9.23537184e-003 5.68340719e-003 1.60819273e-002 -1.32313091e-002
      -6.07202239e-002 -4.20817137e-002 -1.63021963e-002 7.38642586e-004
      -1.04182931e-002 1.09032169e-002 4.52383943e-002 -7.28569366e-003
      -6.94979653e-002 -3.41248810e-002 1.18521489e-002 -9.76944715e-003
      5.68072137e-004 3.31948115e-003 -2.90193222e-002 1.07981637e-002
      -1.80403665e-002 -3.71390879e-002 3.50571461e-002 1.56414043e-002
      -2.12521609e-002 2.17947252e-002 5.63548952e-002 1.16884080e-003
      -1.70164742e-003 -2.61140820e-002 -9.69165117e-002
      -1.17552377e-001 1.41889080e-002 1.21905627e-002 2.44840980e-002
      8.77942052e-003 2.18108445e-002 5.23413122e-002 -3.48043405e-002
      -5.48366979e-002 2.43816637e-002 8.33533630e-002 4.14226614e-002
      3.33411433e-002 1.25714596e-002 2.06477866e-002 1.79986209e-002
      -2.31531560e-002 -6.18529059e-002 1.94416177e-002 -6.64772931e-003
      -3.59939523e-002 -7.61942239e-004 4.71533723e-002 -1.63653530e-002
      -4.40384597e-002 2.22206023e-003 -1.47699248e-002 6.38240129e-002
      3.25677358e-002 -1.39328334e-002 5.85267767e-002 5.51634766e-002
      -1.27196889e-002 -3.37936021e-002 -6.44459724e-002
      -1.02953039e-001 4.87150103e-002 4.28387150e-002 -8.81410262e-004
      -2.53890641e-002 1.23420963e-003 -2.88091693e-002 -2.05371436e-003
      1.11155678e-003 -4.95087914e-002 6.19248264e-002 2.23053303e-002
      -1.72671804e-003 9.01997462e-003 1.49293505e-002 -2.51227319e-002
      3.53149287e-002 2.63015297e-003 -2.05166787e-002 3.72758098e-002
      -2.45318711e-002 3.87499295e-003 3.20234187e-002 2.32113954e-002
      -4.64746915e-002 -4.58415113e-002 3.18487361e-002 2.31328104e-002
      3.42697166e-002 -4.64366889e-003 3.63481119e-002 4.08918932e-002
      5.95976859e-002 -2.06616372e-002 -7.79480115e-003 3.42348823e-003
      -5.01277447e-002 2.91040260e-002 -3.78346629e-002 -4.56010029e-002
      -2.01975778e-002 -2.54446641e-002 -6.91549852e-002
      -1.26835518e-002 1.99086610e-002 -1.51507696e-002 9.72076971e-003
      -1.17582595e-002 -1.13345422e-002 1.22822979e-002 9.38504282e-003
      -5.31942509e-002 -9.04582627e-003 2.80111302e-002 -1.16832228e-002
      1.87618230e-002 3.86781525e-003 1.39017040e-002 -4.14419686e-003
      3.40777822e-002 -2.93988660e-002 1.17451872e-003 4.17610351e-003
      -2.63431743e-002 3.44225019e-002 2.06362624e-002 -6.52742572e-003
      2.15261821e-002 2.62928959e-002 -1.56898480e-002 1.77071672e-002
      -3.26277092e-002 -4.71166633e-002 -1.85475699e-004 8.14122427e-003
      6.38024602e-003 -1.21173142e-002 -2.07764581e-002 -4.40045483e-002
      -5.40892733e-003 -4.19985205e-002 -6.97946027e-002 1.16472188e-002
      -1.43613853e-002 -3.49400006e-002 9.46105458e-003 -2.96448246e-002
      -1.96538419e-002 -3.18289809e-002 2.46881563e-002 -2.01593637e-002
      5.49335557e-004 -1.06823295e-002 -4.08032117e-003 9.53738950e-003
      1.35024721e-002 -2.68611945e-002 1.37275653e-002 3.28886956e-002
      2.26256568e-002 5.65516762e-002 4.13513891e-002 1.81653351e-002
      4.04848456e-002 3.37431878e-002 -1.39055513e-002 1.11011611e-002
      -1.57167297e-002 -2.75973734e-002 -1.21901287e-002
      -4.29685190e-002 -4.73535433e-002 -1.43636968e-002
      -3.44107971e-002 -2.06252094e-002 -3.12857367e-002 7.90344458e-003
      8.48875847e-003 2.66092960e-002 -1.65853966e-002 -5.22962362e-002
      -2.81460285e-002 1.99520937e-003 -1.70686841e-002 -1.95372310e-002
      2.68693641e-002 4.98319156e-002 6.74466267e-002 2.43876912e-002
      -2.87118424e-002 -1.27203064e-002 3.39806341e-002 -1.75046385e-003
      2.75855698e-002 5.33557236e-002 6.17714748e-002 4.72512953e-002
      1.52147226e-002 -1.03890020e-002 1.10153323e-002 6.96437135e-002
      4.20147330e-002 1.03743695e-001 2.54997658e-003 2.52348389e-002
      4.69488241e-002 -4.19653468e-002 -8.42758119e-002 -7.17333406e-002
      -2.13997234e-002 -4.90302220e-002 -4.98210266e-003 1.71578117e-003
      1.86193120e-002 3.33768241e-002 -2.83721741e-002 -5.40569760e-002
      -1.61893722e-002 1.53720956e-002 -1.83392800e-002 2.60238275e-002
      9.23512056e-002 2.01503020e-002 9.65723302e-003 -4.33710888e-002
      -2.96169017e-002 2.84438115e-003 2.57275403e-002 8.80951900e-003
      8.36458802e-002 9.55419764e-002 2.86623351e-002 8.62348024e-005
      -1.73695013e-002 -1.40168481e-002 1.54869631e-003 3.09307929e-002
      1.06992498e-002 6.47071823e-002 3.61845158e-002 -5.11352755e-002
      -2.26542987e-002 -8.22261795e-002 -7.23733604e-002
      -2.56365873e-002 5.60598681e-003 -1.52187226e-002 4.90464568e-002
      1.81267411e-002 -4.12941836e-002 -3.16661671e-002 -5.40829562e-002
      -8.68704617e-002 -4.70699817e-002 5.21361548e-003 -3.52718830e-002
      1.58573221e-002 6.59621507e-002 6.59488933e-003 -1.60528242e-003
      -1.30344899e-002 -1.15921758e-002 -2.40058992e-002
      -4.41447395e-004 7.29961507e-003 4.57207784e-002 1.01797923e-001
      2.67928001e-002 4.38412800e-002 -9.31627955e-003 3.62720736e-003
      1.90712903e-002 3.62412296e-002 4.14950065e-002 8.53022486e-002
      6.33244589e-003 -5.16920984e-002 -5.45991585e-002 -7.56235793e-002
      -6.25364110e-002 -7.32597336e-002 -4.92067561e-002
      -7.83936828e-002 -1.09068705e-002 4.16656397e-002 6.29436178e-003
      -1.87979378e-002 -5.73580340e-002 -6.39081448e-002
      -1.34023111e-002 -1.93567593e-002 -2.67159138e-002 1.12412693e-002
      3.08015272e-002 -4.03844677e-002 -8.88246950e-003 -6.53816089e-002
      -3.50435674e-002 1.50101830e-003 2.93529257e-002 -6.57326728e-003
      4.03275006e-002 2.72070635e-002 2.11433712e-002 2.32389718e-002
      -2.09980235e-002 6.34535030e-003 3.58574428e-002 4.00479361e-002
      2.16776356e-002 3.91661003e-002 3.43601266e-003 5.29883476e-003
      -3.57975662e-002 -4.63382527e-002 -3.29244882e-002
      -2.71212496e-002 -1.73411332e-002 -3.52235511e-002
      -5.42790769e-003 1.07620331e-002 3.65904048e-002 2.36405991e-002
      -2.80304719e-003 2.36380156e-002 1.60972234e-002 3.77078578e-002
      1.27663100e-002 -4.29390464e-003 1.00425845e-002 2.47930698e-002
      1.95522737e-002 -2.03860644e-002 2.42426340e-002 1.87780168e-002
      -1.92351465e-003 -2.40599643e-003 -1.40748862e-002 2.32055481e-003
      3.75494175e-002 4.77387151e-003 -1.15185557e-002 2.27127559e-002
      -1.22116953e-002 1.23298271e-002 1.97107624e-002 1.59464795e-002
      -7.53345725e-004 2.75924020e-002 -1.53799032e-004 -1.18207159e-002
      1.48097100e-002 -2.19695568e-002 -1.59232058e-002 1.22237122e-002
      -1.84183475e-002 -8.57684063e-004 5.58262728e-002 5.90328127e-004
      6.27395755e-004 1.41400900e-002 -4.52379361e-002 -2.58140787e-002
      4.06917967e-002 2.08364613e-002 -1.00134844e-002 5.33587262e-002
      -5.76233165e-003 -2.03078073e-002 -2.78209038e-002
      -1.33144623e-002 1.56024704e-002 1.09533733e-002 -1.91958286e-002
      -4.70075384e-002 4.91870977e-002 2.18342058e-002 2.04012021e-002
      2.50958372e-002 6.96352590e-003 4.76749316e-002 5.15491739e-002
      -9.33366269e-002 -1.52867706e-002 6.68457448e-002 1.66962016e-002
      -1.36134289e-002 -4.39413264e-002 -2.02152301e-002 4.97321226e-003
      3.26940678e-002 -1.87424570e-002 -3.58167365e-002 7.70614669e-002
      3.11038923e-002 -3.45704006e-003 1.71909723e-002 3.21564055e-003
      5.61705567e-002 8.24564546e-002 -4.27200869e-002 -6.91352263e-002
      2.17779335e-002 -1.76366642e-002 -6.72429577e-002 -3.65114934e-003
      -5.74059300e-002 1.52032208e-002 1.23372842e-002 -4.39958796e-002
      -4.02289480e-002 2.01983992e-002 -1.60889663e-002 -6.85765073e-002
      -1.90499984e-002 -4.43456434e-002 1.88807901e-002 2.01442968e-002
      -5.61715141e-002 -6.42896444e-002 2.51305047e-002 -1.59819110e-003
      -6.71197698e-002 -4.52391896e-003 -7.32584745e-002 2.84843277e-002
      1.32158436e-002 -4.71658967e-002 -4.80095707e-002 1.41891045e-002
      9.52187926e-003 -3.70138362e-002 -1.56232584e-002 -7.56605938e-002
      2.36970037e-002 1.95045602e-002 -5.98637424e-002 -3.85990329e-002
      3.30007635e-002 9.93866008e-003 -3.90156843e-002 -2.97632571e-002
      -1.34461327e-002 3.15862596e-002 4.02911007e-002 -3.69970761e-002
      -5.97909465e-002 -1.69566944e-002 -1.47672240e-002
      -3.38152908e-002 -1.46614294e-002 -2.64112204e-002 1.11213289e-002
      3.67574953e-002 -6.27830923e-002 -2.55737901e-002 2.38151588e-002
      -4.17599902e-002 -5.72976805e-002 -3.51974778e-002
      -4.44118902e-002 3.06962151e-002 4.15347107e-002 -4.09333035e-002
      -4.60462198e-002 -3.12722474e-002 -5.79628535e-002
      -5.95404357e-002 -2.59293732e-003 8.04073457e-003 4.45356853e-002
      5.25797158e-002 -5.04152179e-002 7.34538352e-003 4.25713584e-002
      6.02931902e-002 2.75102966e-002 2.90340018e-002 1.33077307e-002
      4.56790738e-002 8.21668059e-002 6.86569512e-003 -5.99590614e-002
      1.79490987e-002 3.98348160e-002 -7.92899914e-003 -1.81774572e-002
      1.24161625e-002 2.01597068e-004 3.27140540e-002 -4.54049967e-002
      -3.68638337e-002 -6.82691410e-002 -8.95476565e-002
      -6.31999448e-002 5.08153578e-003 3.40637825e-002 6.51714280e-002
      6.75704032e-002 -8.86841305e-003 -1.60861269e-001 -2.06361219e-001
      -1.74836814e-001 -1.31599426e-001 -7.36490488e-002
      -7.54410401e-003 -2.46719196e-002 -3.16555202e-002
      -1.06771782e-001 3.78830507e-002 5.08957058e-002 -9.09983367e-003
      1.67462172e-003 3.91432084e-002 7.22055659e-002 3.45808528e-002
      4.65500094e-002 1.24769621e-002 6.55014738e-002 -6.92058429e-002
      -1.06251441e-001 -5.60234115e-002 2.71701980e-002 6.43931329e-002
      7.51820719e-003 -6.81924215e-003 7.66461343e-002 -1.01277463e-001
      -1.42962262e-001 -1.14210993e-001 -4.00787331e-002 4.76145074e-002
      3.95565331e-002 -1.10356305e-002 -8.88907909e-002 -1.13043584e-001
      5.15675812e-004 -1.41953811e-001 -2.12726250e-001 -1.17586941e-001
      9.05556604e-003 4.34239469e-002 -5.79290129e-002 -1.14523016e-001
      -8.51619057e-003 -2.95848679e-002 -2.32480556e-001
      -1.78417310e-001 -4.35836948e-002 4.83930185e-002 6.28729984e-002
      -6.30031712e-003 1.70575629e-003 4.24244180e-002 -8.63072649e-002
      -1.74061999e-001 -3.65393311e-002 8.33627135e-002 6.91466928e-002
      5.88479713e-002 1.96065400e-002 9.07936846e-005 4.57868027e-003
      1.40334712e-002 -2.92238057e-001 -2.78271824e-001 -1.01947099e-001
      3.63339484e-002 5.13519272e-002 -2.29543783e-002 -3.39847431e-002
      6.97467029e-002 -1.33480038e-002 -1.54469043e-001 -5.45482673e-002
      9.38466564e-002 1.16812319e-001 9.86428484e-002 7.44928792e-002
      7.29151070e-002 6.05598129e-002 -1.21652558e-001 -1.47179648e-001
      2.25399490e-002 5.54177277e-002 2.50186305e-002 -5.31351985e-003
      -2.81920061e-002 -8.22974890e-002 -6.46133423e-002
      -9.20449197e-002 -1.16275683e-001 8.69419426e-003 3.40890810e-002
      2.56623775e-002 5.94586041e-003 -2.25566551e-002 -8.67566690e-002
      -4.37996276e-002 -8.02692175e-002 -6.42598718e-002 6.22137561e-002
      1.08104669e-001 9.57052112e-002 4.76105325e-002 2.37693936e-002
      -2.89452858e-002 -1.15189683e-002 -7.22390637e-002
      -3.54793780e-002 8.82125422e-002 1.30808070e-001 1.37724414e-001
      1.00775972e-001 3.40287127e-002 -2.00472996e-002 -4.77653109e-002
      -5.58337122e-002 -1.01291388e-001 -1.08373084e-003
      -6.28593517e-003 1.44388760e-002 8.04884825e-003 -1.94674768e-002
      -6.87849075e-002 -3.04682925e-002 -8.19571763e-002
      -1.07459471e-001 -2.99784467e-002 2.95079853e-002 3.11653856e-002
      1.84549466e-002 -2.39276029e-002 -5.22349142e-002 -4.14265506e-002
      -2.39264481e-002 -7.57850334e-002 3.20889689e-002 4.52265739e-002
      7.49116614e-002 4.39870618e-002 1.84648540e-002 2.80126999e-003
      1.82080478e-003 -4.62564966e-003 -6.35954961e-002 1.25526432e-002
      7.10138679e-002 4.69364002e-002 2.38430221e-002 2.94993222e-002
      8.16679094e-003 -1.79025065e-002 -1.12199269e-001 -1.35536343e-001
      -4.90705110e-002 2.80133318e-002 3.96537669e-002 4.46110498e-003
      -4.34350930e-002 -8.06624815e-002 -6.87813982e-002
      -8.13736394e-002 -1.11888543e-001 1.64394416e-002 -3.92006850e-003
      -4.74318303e-003 4.25859727e-003 -4.29774784e-002 -7.78056830e-002
      -9.28071365e-002 -7.25477142e-003 -4.16499749e-002 2.99073011e-002
      6.76832870e-002 5.75021021e-002 -8.69974215e-003 1.50547111e-002
      -1.55731225e-002 5.42346272e-004 -1.55713130e-003 2.35925056e-002
      1.01285569e-001 1.07200243e-001 4.27706204e-002 9.12105571e-003
      2.40342394e-002 -2.56732497e-002 -2.80195996e-002 -5.78588657e-002
      -5.13153933e-002 1.13263428e-002 -3.10627697e-003 -1.45671107e-002
      -1.02921566e-002 -4.95792031e-002 -9.95629281e-002
      -1.27083093e-001 -4.55886945e-002 -9.58035793e-003 1.84068829e-002
      1.56564452e-003 -2.03698594e-002 -2.06005126e-002 -6.85411366e-003
      -5.75626642e-002 -6.75013885e-002 -8.38091597e-003 7.29200151e-003
      7.93388560e-002 9.88116339e-002 2.44636666e-002 -1.78569630e-002
      -2.66829436e-003 -6.40327856e-002 -8.41692239e-002
      -6.99218735e-002 1.63601749e-002 6.32348880e-002 1.00411974e-001
      6.08157180e-002 3.36913690e-002 9.17596295e-002 -3.40550137e-003
      -6.29892275e-002 -2.51572914e-002 -1.12779588e-002 3.69847082e-002
      7.23980309e-004 -2.65920330e-002 -7.11841974e-004 1.96952168e-002
      -4.63782065e-002 -1.40302479e-002 -2.48235799e-002
      -1.11948224e-002 3.91534790e-002 4.46185423e-003 -2.06837524e-002
      3.63860689e-002 1.11808646e-002 -6.71512857e-002 1.07665583e-002
      -4.75465432e-002 -1.07733645e-002 7.38150775e-002 9.79010239e-002
      7.90219679e-002 6.64588511e-002 1.05444320e-001 -1.52746995e-003
      -6.41908273e-002 -8.95504132e-002 -6.36670589e-002 6.76796809e-002
      9.39239040e-002 6.82773665e-002 7.68604502e-002 6.93501458e-002
      -4.65045087e-002 -9.81710628e-002 2.59862584e-003 -2.80479845e-002
      3.18078324e-002 -1.27274673e-002 -1.92217324e-002 4.43224609e-002
      4.28929217e-002 -1.51926773e-002 2.94939317e-002 -3.82980555e-002
      -5.20532541e-002 2.34597605e-002 3.11943516e-002 1.88321080e-002
      5.10142520e-002 6.11000247e-002 1.11433035e-002 1.22887781e-002
      -8.49149004e-002 -5.05733937e-002 3.74885835e-002 6.52589351e-002
      5.51509745e-002 6.07786514e-002 6.74181655e-002 -5.02960309e-002
      -8.10886770e-002 -1.29598275e-001 -9.62436348e-002 7.14358455e-003
      6.82628229e-002 8.17853063e-002 7.62770772e-002 7.14129210e-002
      -8.11284482e-002 -1.09920144e-001 -3.10337427e-003
      -2.83916276e-002 2.80259904e-002 3.44192982e-002 3.70889194e-002
      5.99762462e-002 4.70899828e-002 -2.90265139e-002 -7.36218877e-003
      6.84891492e-002 8.86199549e-002 2.90824566e-002 5.22424467e-002
      5.46241365e-002 7.27325752e-002 3.40900570e-002 -5.26429191e-002
      2.79919840e-002 -1.42937914e-001 -1.15062557e-001 -3.10372226e-002
      2.07871925e-002 3.82632650e-002 3.09963394e-002 2.22440362e-002
      -1.39121205e-001 -1.08672954e-001 -7.04579353e-002
      -4.95997742e-002 -5.75610884e-002 -1.25060994e-002
      -2.56399959e-002 -3.39634866e-002 -6.64243549e-002
      -1.70418680e-001 -4.52857763e-002 4.63680811e-002 6.82378784e-002
      -1.68693010e-002 3.17070656e-003 7.18517229e-003 -2.21004393e-002
      -3.93384658e-002 -7.82825425e-002 -2.11430993e-002 6.92308769e-002
      7.33467937e-002 4.88677211e-002 9.45177972e-002 8.80278200e-002
      6.87102899e-002 4.70596626e-002 2.87549794e-002 3.49845365e-002
      9.95436421e-005 -2.69172937e-002 -6.23181388e-002 -6.16172068e-002
      -5.60291000e-002 -1.21224448e-001 -1.17634989e-001
      -1.60227820e-001 -2.62766480e-002 6.21114634e-002 3.04495692e-002
      4.40452285e-002 7.29796514e-002 6.12147059e-003 -4.94553847e-003
      1.30849639e-002 -1.61338262e-002 3.76188196e-002 2.48950697e-003
      -1.64669137e-002 -3.17063965e-002 1.17688663e-002 2.79938187e-002
      -3.00892541e-004 -3.38733047e-002 2.19386793e-003 -2.56469997e-004
      2.96018384e-002 1.83364153e-002 -7.51067512e-003 3.16076241e-002
      1.94628797e-002 1.31891831e-003 -2.08018143e-002 4.32948247e-002
      5.45215420e-002 -3.53161595e-003 -5.58853187e-002 -5.52406162e-002
      -2.14450099e-002 -1.94401760e-002 -5.84475771e-002
      -8.70084018e-002 -5.00468463e-002 -3.60997878e-002 9.24009085e-003
      -2.85716318e-002 -6.00915886e-002 -2.49742828e-002
      -1.56490561e-002 -5.05340397e-002 -5.92801571e-002
      -6.31464785e-003 -4.89482563e-003 -1.32608647e-002 2.87930984e-002
      -7.03867478e-003 -2.06718594e-002 -7.57764950e-002
      -5.04325032e-002 -4.51791808e-002 -8.82827304e-003
      -1.20298164e-002 -2.99394168e-002 7.01797381e-002 1.86393000e-002
      3.06120631e-003 2.29293983e-002 -1.20325643e-003 4.13790904e-003
      5.33162765e-002 -3.45795602e-002 1.32856239e-002 8.06750450e-003
      -3.25403102e-002 -6.28027171e-002 -9.31149200e-002
      -7.42634684e-002 -7.46312067e-002 -1.67846084e-002
      -3.04301525e-003 -3.11248284e-003 8.78623948e-002 2.68265642e-002
      -1.64237488e-002 3.26453261e-002 1.68706402e-002 2.93450872e-003
      6.71821386e-002 1.06022805e-002 -5.78929931e-002 1.63950361e-002
      4.22949623e-003 -3.73380631e-002 -3.52122933e-002 -6.81087077e-002
      2.19696574e-002 4.45033098e-003 -3.34553346e-002 -3.75200175e-002
      3.39310430e-002 2.77203228e-002 -3.65422890e-002 -1.65996663e-002
      -5.87824658e-002 2.56026741e-002 4.17034365e-002 -1.44484229e-002
      -4.54933010e-002 1.58259254e-002 -1.37256524e-002 -3.38127874e-002
      -2.12845337e-002 -5.85520342e-002 1.57609992e-002 5.90410363e-003
      -6.64774403e-002 -1.92650389e-002 4.00928259e-002 1.46681424e-002
      -5.81045896e-002 1.55867524e-002 -2.48984303e-002 5.98425530e-002
      3.82975377e-002 -2.70436313e-002 -1.33976862e-002 4.77219149e-002
      -1.35626141e-002 -4.33727913e-002 -2.23564934e-002
      -2.05871649e-002 4.35140654e-002 5.08655757e-002 -1.97243597e-002
      -7.74951326e-003 -4.85431263e-003 -5.48480488e-002
      -8.25038776e-002 -6.59091771e-002 -3.35878767e-002 5.56922890e-002
      9.05797780e-002 -3.19317076e-003 -2.21869200e-002 8.48953724e-002
      5.24642579e-002 -3.17554995e-002 -3.54377776e-002 -5.53751327e-002
      5.08105569e-003 4.51182909e-002 -1.83811144e-003 -1.24266874e-002
      5.30588441e-002 2.20641238e-003 -3.62255350e-002 -1.13385215e-001
      -9.41006392e-002 -3.81553434e-002 2.68306322e-002 -2.42150351e-002
      7.17719123e-002 2.01738719e-003 -6.35386705e-002 -7.12739304e-002
      -5.11008203e-002 -1.15351696e-002 5.80270290e-002 9.18539315e-002
      8.88617635e-002 -3.86223756e-002 -1.94050491e-001 -1.98322341e-001
      -1.49673477e-001 -1.06415965e-001 -9.75547731e-002
      -1.01445250e-001 -6.86033964e-002 -1.80675332e-002 8.03639442e-002
      8.32822770e-002 3.41940224e-002 -1.08821569e-002 -8.87758657e-002
      -9.53671262e-002 -6.68766722e-002 2.07059514e-002 5.95879555e-002
      -2.94409990e-002 -1.25874793e-002 -5.34950309e-002
      -8.33734572e-002 -1.27078325e-001 -1.70800343e-001
      -2.30193749e-001 -1.98258460e-001 -1.00395977e-001
      -5.50089404e-002 -1.40214697e-001 -1.14684597e-001
      -4.37801667e-002 5.54071292e-002 -2.12346856e-002 -7.71944001e-002
      -1.11874439e-001 -6.87857196e-002 1.03716299e-001 -6.32933602e-002
      -1.52325988e-001 -5.57334758e-002 1.37405349e-002 -3.57589498e-002
      -8.66834968e-002 -9.12064463e-002 5.63299432e-002 -6.74397722e-002
      -1.21808901e-001 -4.28834073e-002 1.27900783e-002 4.33377549e-002
      -3.36026847e-002 -1.20416306e-001 -1.34902045e-001
      -7.75695369e-002 6.85290918e-002 -8.64734650e-002 -8.57284665e-002
      -6.02893939e-004 2.18456760e-002 -7.39841536e-002 -1.54713288e-001
      -7.30183050e-002 8.60478207e-002 8.68254229e-002 -2.20084637e-001
      -2.80866385e-001 -1.74334437e-001 -9.43753123e-002
      -1.48375258e-001 -1.46485850e-001 -9.23029557e-002 1.16403386e-001
      1.45684764e-001 -3.95379327e-002 -5.71913533e-002 2.41866540e-002
      5.00933714e-002 1.61768794e-002 1.32287573e-002 6.65506870e-002
      1.98982149e-001 8.87069553e-002 -1.07028410e-001 -1.57964408e-001
      -9.62572247e-002 -7.45202526e-002 -1.98704362e-001
      -2.97418267e-001 -2.19388247e-001 6.10473044e-002 1.66258678e-001
      6.22020289e-002 1.34710399e-002 3.67765911e-002 6.68872893e-002
      1.94992442e-002 -4.90117744e-002 -7.35948561e-003 1.29159093e-001
      1.29969874e-002 -5.63072972e-002 -1.66601092e-002 5.38146449e-003
      1.95537731e-002 -3.54571193e-002 -4.66426499e-002 -4.84912470e-002
      3.05920262e-002 -4.37493855e-003 -2.36280058e-002 1.11092562e-002
      4.03818414e-002 6.96369410e-002 3.82735915e-002 -6.40894845e-003
      -2.85460018e-002 -1.15006175e-002 2.18425319e-002 -3.17605995e-002
      -3.51275019e-002 -1.37399873e-002 3.22899632e-002 6.47652615e-003
      -4.41890135e-002 -6.57041818e-002 9.44541115e-003 -1.19483480e-002
      -2.34880499e-004 1.99548677e-002 4.12190296e-002 9.94947702e-002
      7.00889304e-002 1.63385011e-002 -9.79264081e-003 4.60805930e-003
      8.75098333e-002 -4.65463288e-002 -4.08612750e-002 -4.68676575e-002
      -1.43783120e-002 -5.19054867e-002 -1.96960047e-002
      -2.40923297e-002 6.66392595e-002 1.23988420e-001 -1.26574151e-002
      -3.92982326e-002 -5.48248403e-002 -7.85071552e-002
      -1.11896470e-001 -2.15932969e-002 -1.54661164e-002 1.09543838e-001
      5.25850654e-002 -9.82573163e-003 -2.50955224e-002 -3.38928588e-002
      1.12152258e-002 -8.70472379e-003 -1.70658883e-002 -2.72028670e-002
      4.12346236e-002 7.98456296e-002 3.03935562e-003 -4.10029031e-002
      -8.62769932e-002 -6.61087111e-002 -3.80456597e-002 3.24314530e-003
      5.01776300e-003 7.41578788e-002 1.51599273e-001 -1.83685813e-002
      -3.59218642e-002 -8.24765936e-002 -1.10030748e-001
      -1.28349692e-001 -4.04735059e-002 -4.10303213e-002 9.54842716e-002
      1.11743405e-001 1.72335596e-003 3.00542470e-002 -1.31799339e-003
      -4.71427143e-002 -6.56265095e-002 -4.07764055e-002
      -5.92280068e-002 7.49981478e-002 8.48309845e-002 -1.62328519e-002
      -5.72810955e-002 -1.12571403e-001 -1.18556127e-001
      -7.83822015e-002 -4.73103346e-003 -2.81663761e-002 7.78895169e-002
      8.59299302e-002 -5.63740544e-002 -1.03104981e-002 -5.24207056e-002
      -5.43408431e-002 7.94891827e-003 1.96756050e-002 -5.13176201e-003
      7.91821107e-002 8.40709507e-002 4.81557939e-003 3.03064492e-002
      4.44930829e-002 -5.11097442e-003 -2.57440042e-002 -2.60444684e-003
      -2.36725230e-002 2.91040689e-002 -7.78234228e-002 -4.14494090e-002
      2.60458374e-003 3.16172875e-002 6.96727680e-003 -2.15750709e-002
      1.85802355e-002 -6.86025769e-002 -6.16222583e-002 4.46869656e-002
      -3.32535990e-002 2.08323281e-002 -3.37586785e-003 1.57082465e-003
      6.58689737e-002 4.38308567e-002 2.47308109e-002 7.79911205e-002
      -3.81538123e-002 -6.03088252e-002 1.14526907e-002 -1.34314178e-002
      -5.28263627e-003 4.45757098e-002 3.04882545e-002 -1.04718879e-002
      -4.49930690e-002 -5.62607460e-002 -6.48467615e-002 6.81855008e-002
      1.09590188e-001 1.09412335e-001 5.80328442e-002 8.29519033e-002
      8.15368199e-004 -6.37456551e-002 -1.02981843e-001 -1.29930392e-001
      6.00420535e-002 1.12050891e-001 1.09738961e-001 6.78842515e-002
      4.70336415e-002 -6.63508847e-002 -8.48513022e-002 -3.64918448e-002
      -1.05321249e-002 9.09776613e-002 9.23057199e-002 1.07945420e-001
      8.90876278e-002 6.50134608e-002 -3.49019431e-002 -5.96746765e-002
      -9.66979414e-002 -4.32275161e-002 6.25558421e-002 9.28811878e-002
      7.81179145e-002 7.53573701e-002 4.07535620e-002 -1.28338799e-001
      -9.54818055e-002 -7.85699710e-002 -7.69055262e-002 5.58814183e-002
      1.23724103e-001 1.38296872e-001 7.52545819e-002 8.73098373e-002
      -1.04807401e-002 -7.36028552e-002 -1.35745138e-001
      -1.19443029e-001 1.37412073e-002 1.00546695e-001 1.21923678e-001
      9.30786803e-002 6.23805933e-002 -7.46030658e-002 -1.30114198e-001
      -1.07566342e-001 -1.70460939e-002 1.00693904e-001 1.13919325e-001
      1.22872852e-001 8.76248181e-002 4.73086759e-002 -7.72502869e-002
      -8.64615813e-002 -1.32243693e-001 -1.08994290e-001 4.17442955e-002
      9.80515704e-002 1.12828203e-001 9.34857428e-002 2.22283248e-002
      -1.09212957e-001 -1.24519415e-001 -9.18075442e-002
      -8.01849961e-002 -7.94393383e-003 5.72341830e-002 8.72339830e-002
      5.96691594e-002 2.15569790e-002 -5.47839850e-002 -1.17809027e-001
      1.67705270e-003 -3.09212990e-002 1.08474772e-003 -4.41836985e-003
      -4.75308336e-002 -4.85542528e-002 -2.59035658e-002
      -6.39982373e-002 2.45892489e-003 -1.16005480e-001 -7.33137652e-002
      8.38274788e-003 4.09652591e-002 8.06682631e-002 5.41886650e-002
      -1.69545715e-003 -1.00573465e-001 -1.11850493e-001 1.96730141e-002
      -4.34062555e-002 1.60363002e-003 -3.85521911e-002 -7.10770413e-002
      4.23448393e-003 4.55502095e-003 -4.86769974e-002 -1.03677446e-002
      5.30221313e-002 -1.08014010e-002 -3.13589610e-002 -1.18621461e-001
      -1.57475263e-001 -1.65994301e-001 -7.07744956e-002
      -5.60462177e-002 1.28042372e-002 1.05745561e-001 4.64083850e-002
      8.79190266e-002 7.46635944e-002 1.09614851e-002 6.22916110e-002
      5.99816740e-002 4.42678407e-002 9.89700779e-002 2.78662937e-003
      -4.35482487e-002 -5.97417541e-002 -1.60814613e-001
      -1.48258001e-001 -1.03026062e-001 -1.71628874e-002
      -1.55326845e-002 4.00713347e-002 1.00184977e-001 4.90253754e-002
      5.22792153e-002 2.64824796e-002 4.83851321e-003 1.05998188e-001
      1.02971509e-001 7.33341947e-002 1.25555858e-001 -1.31342199e-003
      -3.23589258e-002 -1.10589070e-002 8.40076478e-004 5.44622913e-002
      4.39111289e-004 -3.36102322e-002 -4.02157679e-002 -1.69594921e-002
      -7.57688249e-004 -5.54024242e-003 -3.68122086e-002
      -2.56827921e-002 -7.94467982e-003 -4.62996401e-002
      -2.51648575e-002 -6.58009760e-003 1.71068572e-002 -1.29616875e-002
      -3.66558507e-002 -3.93148139e-002 -1.22007180e-003 4.56013307e-002
      5.35324868e-003 -3.49458605e-002 -2.51588449e-002 2.45377775e-002
      -1.95437167e-002 -6.30302029e-003 -4.25360203e-002
      -3.47659132e-003 -4.25152965e-002 -5.41155934e-002
      -8.27725604e-002 -6.37748512e-003 -1.05831204e-002
      -9.66046844e-003 1.81958992e-002 -2.20079198e-002 -8.96518230e-002
      -1.13098979e-001 -8.32964107e-002 -3.19353640e-002
      -1.74186088e-003 3.52433068e-003 2.07632743e-002 1.03218250e-001
      4.55463678e-002 -5.95427398e-003 3.66057046e-002 1.75293479e-002
      3.03644594e-002 9.97600630e-002 3.35124694e-002 -3.39963846e-002
      -1.47401225e-002 -6.09100461e-002 -7.08443373e-002
      -1.21192813e-001 -1.04930349e-001 -4.42685746e-002 6.90242462e-003
      -2.76316702e-002 3.25481854e-002 1.07251637e-001 2.83751152e-002
      1.92725547e-002 1.74874645e-002 -1.37154190e-002 3.75221372e-002
      1.20739892e-001 3.06870602e-002 -2.30861716e-002 -6.87005185e-003
      -1.32795768e-002 -4.51303273e-002 -1.80862956e-002
      -6.49306178e-002 -4.07308619e-003 1.42079992e-002 -6.31711781e-002
      -2.42933221e-002 2.20109895e-002 2.87943184e-002 -6.81528002e-002
      -2.10158527e-002 -3.24680768e-002 2.81605348e-002 3.43315378e-002
      -3.69706340e-002 -5.12070470e-002 2.12536659e-002 2.59912051e-002
      -5.15756495e-002 -4.85376008e-002 -7.70568997e-002 8.47427174e-003
      2.28980221e-002 -8.18389282e-002 -4.08477634e-002 1.22657055e-002
      2.18675137e-002 -5.10661379e-002 -5.98549731e-002 -7.22073615e-002
      -9.77509283e-003 3.64554971e-002 -4.08203155e-002 -4.49909130e-003
      9.48874205e-002 6.83889315e-002 -1.95921231e-002 -2.10123174e-002
      -4.39967103e-002 -2.34965868e-002 3.57525200e-002 -2.39185449e-002
      -3.23510729e-002 6.44877180e-002 4.64980640e-002 1.01633482e-002
      -2.88492125e-002 -5.72400354e-002 -7.50244558e-002
      -2.77557280e-002 -8.06319714e-002 -2.85323802e-002 7.29450583e-002
      6.35928363e-002 -1.37282470e-002 -2.15149485e-002 -3.35094333e-002
      1.04020424e-002 5.28342500e-002 -3.43939997e-002 -7.82701746e-002
      4.56380025e-002 1.66163556e-002 -7.25941779e-003 -1.07143670e-002
      -3.20331603e-002 -1.48899164e-002 -6.69136038e-003
      -8.27514976e-002 -6.58790627e-003 6.97963834e-002 6.68204054e-002
      2.93063037e-002 1.08453399e-002 -7.26990402e-002 -1.14596657e-001
      -5.71062192e-002 -4.50950935e-002 -1.14011407e-001
      -1.19426977e-002 7.12151453e-003 1.31679531e-002 -1.57981794e-002
      -1.20385848e-001 -1.86945036e-001 -1.99541867e-001
      -1.87721685e-001 -2.76453625e-002 5.38262054e-002 2.46771351e-002
      1.15535958e-002 4.17844392e-002 -1.40850490e-003 1.15647493e-002
      1.48394722e-002 -4.29146737e-002 -6.17709756e-002 8.25239997e-003
      2.47958265e-002 4.62313648e-003 -1.13968395e-004 5.63994749e-004
      1.61621738e-002 -1.30144283e-002 -6.50596172e-002 -1.38930976e-001
      -1.38322607e-001 -2.46569254e-002 4.51107547e-002 6.80080056e-002
      -5.54553270e-002 -1.00324780e-001 -9.50358659e-002
      -1.16550356e-001 -2.72120200e-002 -1.46505833e-001
      -5.78986630e-002 5.85640743e-002 2.73421966e-002 -1.17427498e-001
      -1.99292943e-001 -1.04276389e-001 6.11497717e-006 -2.85812449e-002
      1.62141238e-004 2.31681876e-002 2.71622762e-002 1.03761749e-002
      -6.17644237e-003 -7.69397477e-003 3.30723822e-002 2.36392673e-002
      3.72403339e-002 -5.14734862e-003 1.24332379e-003 4.35631052e-002
      -9.01882164e-003 -5.16122691e-002 -7.98121691e-002
      -4.17827517e-002 7.12932795e-002 7.46231675e-002 -7.17573687e-002
      -4.52336408e-002 4.65722680e-002 3.31094339e-002 -8.57197642e-002
      -2.64830619e-001 -2.62936562e-001 5.67285484e-003 8.00156519e-002
      4.75399308e-002 6.17371760e-002 1.03756987e-001 1.28930658e-001
      8.95426497e-002 -4.13593538e-002 -1.67025268e-001 -1.94833316e-002
      2.66994108e-002 -3.23096514e-002 -2.47458611e-002 4.73112389e-002
      1.72494482e-002 -1.97643898e-002 -1.45048365e-001 -2.13520125e-001
      -3.45718339e-002 -1.13976318e-002 -2.03463044e-002 3.32179409e-003
      9.01939645e-002 7.10322410e-002 6.20813519e-002 -7.70901795e-003
      -1.55067712e-001 -7.89465755e-002 -8.75860639e-003
      -4.37514717e-003 8.43016896e-003 5.14098443e-002 1.21869333e-001
      9.19879824e-002 6.68012351e-002 -1.07836597e-001 -7.70100504e-002
      -2.42933333e-002 5.79114119e-003 3.28226127e-002 7.49166980e-002
      1.56373203e-001 1.20614618e-001 7.85809681e-002 -6.84775934e-002
      -5.83843365e-002 -7.90275037e-002 -7.41832331e-002
      -2.87423003e-002 2.42690165e-002 4.39289138e-002 4.78325300e-002
      3.39501128e-002 -1.47475630e-001 -1.37211218e-001 -4.65811305e-002
      -6.47975653e-002 -1.36267161e-002 -3.82299908e-003 1.81738175e-002
      3.22429650e-002 1.38154384e-002 -9.91289541e-002 -8.49921331e-002
      1.27505539e-002 2.25223526e-002 1.85664836e-002 4.92247716e-002
      1.01367429e-001 6.30583987e-002 1.52714150e-002 -7.73729980e-002
      -4.97786701e-002 -4.27847682e-003 1.03251170e-002 1.75130125e-002
      4.81767505e-002 4.93300147e-002 6.38090819e-002 1.45521536e-002
      -7.60255307e-002 -3.05277314e-002 -9.11658071e-003
      -2.71835104e-002 -5.06466022e-003 1.20086153e-003 1.23163941e-003
      -1.29092596e-002 -1.57761984e-002 -8.80897716e-002
      -7.36454055e-002 -2.72260234e-002 -1.95877962e-002 1.32171088e-003
      4.34078053e-002 2.17920877e-002 2.23614951e-003 -3.96679156e-002
      -9.42087471e-002 -8.39368030e-002 -1.69484466e-002
      -3.00944448e-002 1.42963473e-002 2.75527444e-002 5.72143570e-002
      7.09607452e-002 2.98267379e-002 -5.48795387e-002 -6.54692128e-002
      -8.55850801e-003 -2.86079068e-002 3.06769013e-002 1.09880324e-002
      6.09698184e-002 9.06435624e-002 8.67968425e-002 1.59335695e-002
      -3.18033658e-002 -7.85912201e-002 -5.76052070e-002
      -6.08929666e-003 3.18613946e-002 3.35891135e-002 2.50200666e-002
      -2.24022809e-002 -1.07988805e-001 -1.10230513e-001
      -8.59856382e-002 -4.86796051e-002 -2.50924788e-002
      -3.86188850e-002 -9.18901153e-003 2.48732641e-002 5.46277799e-002
      -6.01872131e-002 -9.26036760e-002 -1.58967208e-002
      -3.67362648e-002 -6.85596373e-003 -1.85544286e-002 4.01591882e-002
      9.82307270e-002 9.57185254e-002 4.33565937e-002 -3.46034160e-003
      -2.40749810e-002 9.22734570e-003 4.06517759e-002 9.71288234e-003
      3.21022607e-002 8.91249552e-002 9.12928358e-002 4.38654572e-002
      -6.15601502e-002 -8.26150551e-002 -6.36560395e-002
      -1.57904327e-002 -3.48537825e-002 -1.70724094e-002 2.37410404e-002
      6.61047623e-002 -2.28125788e-003 -6.09503351e-002 -8.58749375e-002
      -2.73662955e-002 8.03532265e-003 -3.12034767e-002 -3.77171785e-002
      4.17768396e-002 6.96525723e-002 9.31127183e-003 -5.85738383e-002
      -3.11792661e-002 1.90956779e-002 8.17649364e-002 4.04203981e-002
      8.26783925e-002 7.86853507e-002 6.12310991e-002 -8.94635171e-003
      -4.26305830e-002 -9.17965695e-002 -2.14446206e-002 7.28158802e-002
      4.60066572e-002 4.79489826e-002 4.67073098e-002 4.47609238e-002
      -4.00325395e-002 -7.08853528e-002 -3.92968580e-002
      -1.66237410e-002 3.79735120e-002 4.42213938e-003 -1.83210317e-002
      4.10394184e-002 6.64611831e-002 1.16573449e-003 -5.74521273e-002
      -1.48024820e-002 -3.32023911e-002 5.42948171e-002 3.06996163e-002
      -1.81652624e-002 1.55124338e-002 4.51094620e-002 1.06945017e-003
      -5.69008030e-002 -9.45567638e-002 -6.19638674e-002 5.24607450e-002
      5.75303771e-002 5.63872643e-002 3.48747857e-002 3.52320187e-002
      -5.13152033e-002 -6.93983138e-002 -1.23259515e-001
      -9.68011245e-002 5.05637191e-002 6.36108518e-002 9.24091563e-002
      3.69601250e-002 1.42404726e-002 -1.31169274e-001 -9.51294079e-002
      1.13680977e-002 -8.12102575e-003 6.09336086e-002 3.99540626e-002
      -1.39468452e-002 -3.99536424e-004 5.01320809e-002 8.54010973e-003
      -6.98055234e-003 1.06057599e-002 -8.80749803e-003 6.64022192e-002
      3.71304527e-002 2.60721855e-002 3.18727344e-002 3.69345099e-002
      -7.44143641e-003 1.36387860e-003 -1.15532637e-001 -1.42795682e-001
      -1.80304274e-002 1.60345882e-002 3.51412147e-002 -1.61426011e-002
      -4.81331237e-002 -1.63201779e-001 -1.07470736e-001
      -5.32326214e-002 -1.37656674e-001 -6.13405146e-002
      -2.76034772e-002 -2.41373200e-002 -1.87956970e-002
      -2.57635452e-002 -8.43541324e-002 -6.24093786e-002
      -4.56315279e-003 -6.03995882e-002 7.64187006e-003 3.56401429e-002
      3.81803140e-002 3.22334990e-002 4.34433371e-002 -5.89172076e-003
      1.54755889e-002 3.67396250e-002 -4.21508439e-002 2.27939971e-002
      4.86850627e-002 7.72991627e-002 6.94069192e-002 8.16460848e-002
      8.93077925e-002 7.72374272e-002 -5.65101616e-002 -1.30132645e-001
      -1.13902129e-001 -1.36840895e-001 -6.92524016e-002
      -4.93583493e-002 -3.16919051e-002 -2.95289606e-002
      -8.83577974e-004 3.11633665e-002 -2.75839586e-002 -2.07027979e-002
      -1.58454571e-002 -2.94350670e-003 8.35946202e-002 5.77554293e-002
      4.61309105e-002 7.16996714e-002 -3.52100208e-002 -7.60713071e-002
      -3.91659774e-002 -3.88803631e-002 1.00125810e-002 1.88496094e-002
      1.57429855e-002 5.60745634e-002 1.90030690e-002 1.37243327e-002
      3.74740059e-003 3.41081768e-002 4.81715351e-002 4.84827198e-002
      9.55532640e-002 7.03106672e-002 7.89912567e-002 5.33056557e-002
      -4.06098627e-002 -6.81396052e-002 -8.60292092e-002
      -4.51141410e-002 1.43922435e-003 -2.53088772e-002 -5.09076379e-002
      -2.35300902e-002 9.14584100e-003 -2.94531770e-002 -1.48109253e-002
      -7.10336119e-002 -3.71491089e-002 -3.46979946e-002
      -6.27746210e-002 -8.04317147e-002 -1.17783397e-002 9.06354096e-003
      -1.80545785e-002 -1.80434603e-002 -1.87869687e-002
      -2.89271213e-003 2.93553434e-002 1.92422904e-002 -1.28722508e-002
      1.79212308e-003 6.51057437e-003 1.89865157e-002 3.55792195e-002
      1.46764517e-003 1.57847609e-002 8.94257054e-003 1.32956672e-002
      -9.74597223e-003 2.86104567e-002 1.29865557e-002 -1.67814828e-002
      -2.87544988e-002 -7.40534887e-002 -6.31663799e-002
      -7.71826357e-002 -7.81871974e-002 -4.45700288e-002
      -7.24101579e-003 5.69888018e-003 5.54694189e-003 4.77535836e-002
      5.09311631e-003 1.40845692e-002 1.05020087e-002 -1.51963402e-002
      3.85041647e-002 9.33962688e-002 2.99265813e-002 -2.33776029e-002
      -4.34185006e-003 -4.08254527e-002 -4.31110151e-002
      -6.39564469e-002 -2.92872023e-002 3.88451415e-004 1.05565740e-002
      -3.45093682e-002 -2.69295909e-002 6.04476519e-002 1.24065019e-003
      -3.47350277e-002 -1.32022677e-002 -7.73008959e-003 8.57795775e-003
      6.13868013e-002 -2.78945677e-002 -4.51485738e-002 4.89767753e-002
      1.86484735e-002 -2.87089571e-002 -1.72634441e-002 -4.02283967e-002
      4.71235439e-002 3.12470701e-002 -7.23769516e-002 -3.87200229e-002
      2.21051238e-002 9.59807541e-003 -3.72246429e-002 -1.39685357e-002
      -4.35970537e-002 1.96801908e-002 4.73091044e-002 -2.18822155e-002
      -2.92094480e-002 4.53304090e-002 1.22295348e-002 -2.69917566e-002
      -1.94193441e-002 -6.87092617e-002 1.38174426e-002 -8.65262991e-004
      -6.51180893e-002 -4.46926542e-002 3.00806481e-002 -6.21986901e-003
      -4.65669632e-002 -2.18957961e-002 -4.60950993e-002 1.19580491e-003
      1.82847809e-002 -4.06732820e-002 -1.98320206e-003 5.90859875e-002
      5.34798130e-002 -5.19032404e-003 -1.93104595e-002 -2.19293386e-002
      3.30443643e-002 5.20334840e-002 2.05491856e-002 -2.27233525e-002
      7.01760054e-002 4.63820882e-002 -1.24811688e-002 -2.80703306e-002
      -2.73379851e-002 2.80029848e-002 5.08455932e-002 -2.69498769e-002
      -5.83574288e-002 2.47634407e-002 3.07078306e-002 -2.61652898e-002
      -1.83520745e-002 -4.38371785e-002 1.80486329e-002 4.05622497e-002
      -1.36921462e-002 -6.75472766e-002 7.72693055e-003 2.03654002e-002
      -4.44221683e-002 -4.45057638e-002 -5.46180457e-002 2.24656053e-002
      3.42594534e-002 -6.92435429e-002 1.42263286e-002 5.61991520e-002
      1.87660344e-002 -1.49543574e-002 4.69465228e-003 -2.83559412e-002
      2.15279739e-002 2.91743018e-002 -6.00771047e-003 -1.97319873e-002
      -2.09216052e-003 -5.14147151e-003 -4.29877751e-002
      -4.21392582e-002 -5.31606898e-002 4.04996276e-002 2.56330241e-002
      -7.52936059e-004 -4.01385576e-002 1.07903732e-002 -1.43616870e-002
      -4.61972877e-002 -1.54222846e-002 -3.06281913e-002 2.78763007e-002
      1.51753519e-002 -3.26450653e-002 -4.94294167e-002 -4.78536300e-002
      -3.55936848e-002 -8.55984688e-002 -7.86487684e-002
      -4.42638211e-002 -2.48934666e-004 -2.01234557e-002
      -1.95972752e-002 1.57591123e-002 -1.12702362e-002 3.40997265e-003
      -1.38191637e-002 -1.80533770e-002 -4.35431562e-002
      -1.43265929e-002 1.81280673e-002 4.85562831e-002 5.06717376e-002
      2.63169054e-002 -5.25826681e-003 8.15329514e-003 -9.63604916e-003
      -4.78050895e-002 -3.49904448e-002 -1.76817290e-002 4.14126217e-002
      -3.75255272e-002 -2.81745158e-002 -1.10775037e-002
      -2.95478068e-002 -4.28413004e-002 -3.34713981e-002
      -1.51604321e-002 -2.48621553e-002 4.80780751e-003 -3.00990734e-002
      -1.04632154e-002 -5.34402533e-003 1.04871849e-002 9.24023479e-005
      -6.03676913e-003 -4.78790440e-002 -5.29593155e-002
      -1.02044428e-002 5.67005612e-002 -2.19129063e-002 -1.66382920e-002
      4.29195203e-002 3.43979336e-002 9.92015842e-003 -6.43247142e-002
      -1.07319400e-001 -3.48459780e-002 4.26863581e-002 8.48818850e-003
      1.25355003e-002 6.65720478e-002 4.67706658e-002 7.00345263e-002
      5.06916232e-002 -4.01462987e-002 -2.67592706e-002 2.36617262e-003
      -8.25340673e-003 4.14397381e-003 1.23171490e-002 -1.99896400e-003
      3.59946350e-003 -5.44323847e-002 -7.67319277e-002 -3.42870057e-002
      2.81964075e-002 4.08486184e-003 5.09329922e-002 4.46353108e-002
      -2.06944607e-002 3.18459198e-002 1.60258487e-002 -2.29743570e-002
      -4.87231044e-003 1.62421446e-003 -4.36135083e-002 4.14500292e-003
      5.72554441e-003 -1.89435191e-003 4.99519184e-002 5.30651398e-002
      -7.51622170e-002 -5.40173538e-002 2.09329557e-002 -2.67933356e-003
      3.67587171e-002 1.03464453e-002 7.19307084e-003 4.16118652e-002
      6.96608573e-002 1.45913623e-002 -4.59282985e-003 -1.49790458e-002
      -2.50400584e-002 3.22873332e-002 2.72500291e-002 -3.46993729e-002
      2.77548432e-002 -6.04175264e-003 -6.80686012e-002 -3.68687063e-002
      -1.14143286e-002 1.87372435e-002 6.11163564e-002 7.39170313e-002
      9.80007183e-003 5.62504493e-002 6.80277646e-002 1.82766430e-002
      -8.14743619e-003 2.49546356e-002 -3.02364398e-002 -2.45184591e-003
      -1.40162772e-002 -3.29648294e-002 -3.06434650e-002 3.17311287e-002
      -5.33151207e-003 -4.54373006e-003 2.50718910e-002 -2.82830242e-002
      3.98229808e-002 7.28010014e-003 -1.59905609e-002 -2.31712908e-002
      1.28146196e-002 -6.81505911e-003 2.02394351e-002 -6.49607256e-002
      -2.37938389e-002 2.25108620e-002 2.24523451e-002 3.74144851e-003
      -9.28005669e-003 2.33526453e-002 -1.85662229e-002 -2.98707820e-002
      -8.94349348e-003 -2.41223946e-002 7.57267252e-002 5.45917787e-002
      1.04445508e-002 -3.59605881e-004 1.56816449e-002 -6.19203923e-003
      2.21663788e-002 -8.67982116e-003 -3.10725886e-002 1.05258022e-002
      -9.19661205e-003 2.01690756e-002 -3.08410488e-002 -1.18715549e-002
      -4.32650261e-002 8.17914214e-003 -2.39507332e-002 -2.74556242e-002
      -1.08086374e-002 -1.44518390e-002 -1.31035568e-002
      -8.14575050e-003 2.83061974e-002 -2.59252172e-002 -1.18905455e-002
      1.18721556e-003 -3.58925760e-002 5.34444526e-002 1.34431971e-002
      2.53022008e-004 -2.23013274e-002 9.39901336e-004 -1.10138785e-002
      4.83350269e-002 -2.04263674e-003 -7.54497061e-003 2.19575223e-002
      6.44009560e-003 -2.40062531e-002 -1.84845906e-002 3.69182341e-002
      1.95252802e-002 9.05308500e-003 -1.78258866e-002 -4.19253409e-002
      4.29191766e-003 -3.12464442e-002 -4.13174694e-003 5.21058403e-003
      2.84128264e-002 -6.54590875e-003 -1.36320274e-002 -5.88201545e-003
      -1.48630701e-002 3.94314639e-002 -2.43822318e-002 -2.09622439e-002
      -1.19008748e-002 2.38127038e-002 -1.86811131e-003 -6.10373914e-003
      2.04968322e-002 -9.33528598e-003 -3.73131246e-003 -2.13339515e-002
      -3.54016642e-003 -3.62817161e-002 6.17440883e-003 1.14292633e-002
      3.77831161e-002 2.53166463e-002 -1.64043549e-002 3.78602073e-002
      1.57394037e-002 2.13175304e-002 7.49528734e-003 3.46907191e-002
      1.61124635e-002 3.56101915e-002 -3.69146354e-002 -5.17230630e-002
      1.70437898e-002 -4.75625284e-002 -5.10943234e-002 -3.28425504e-002
      3.41074653e-002 -1.06703565e-002 -1.36491163e-002 6.88765803e-003
      -1.07409973e-002 7.03460723e-002 6.48880284e-003 -2.76838243e-002
      -2.06507072e-002 1.46795660e-002 -3.80276004e-003 1.38700288e-002
      3.44851650e-002 -1.51703004e-002 6.59328029e-002 1.44560859e-002
      -7.83849973e-003 -3.81213380e-003 4.04426008e-002 2.56961472e-002
      3.17617655e-002 6.99156374e-002 3.35911512e-002 1.15421034e-001
      3.67748067e-002 -2.07122769e-002 -1.13640809e-002 3.11027728e-002
      2.76930090e-002 5.90334311e-002 3.65077443e-002 -3.89373652e-003
      3.07879951e-002 -3.12257428e-002 -5.88573217e-002 -7.83675089e-002
      -1.86024457e-002 -4.21975031e-002 7.09125539e-003 4.11065631e-002
      1.11708930e-003 1.24433860e-002 -4.29237150e-002 -5.19400537e-002
      -5.41711338e-002 -9.95652005e-003 -1.58626828e-002 3.20182629e-002
      5.55193275e-002 3.54264081e-002 5.84914759e-002 -1.78645249e-003
      -2.08022948e-002 -7.48369247e-002 -3.78183177e-004 4.75851027e-003
      5.52282818e-002 3.29798497e-002 4.41846848e-002 4.71115336e-002
      -2.18345392e-002 -1.24769080e-002 -2.78569013e-002 3.25754061e-002
      1.66920125e-002 5.73220737e-002 -5.00020385e-003 -6.39637187e-002
      -5.45135289e-002 -7.79768452e-002 -7.74232522e-002
      -7.70307183e-002 -3.10024321e-002 -1.48661705e-002 1.82357375e-002
      2.21735295e-002 -3.05917617e-002 7.76815880e-003 -3.04771569e-002
      -4.27704975e-002 -3.90684493e-002 -4.57294146e-003 7.59537658e-003
      4.22943234e-002 3.22064869e-002 -4.68646394e-005 4.50767996e-003
      -5.73717989e-002 -4.30010818e-002 -3.10361125e-002 9.31073970e-004
      2.19065212e-002 6.25764206e-002 7.46977404e-002 3.34803760e-002
      5.24599962e-002 2.52174456e-002 1.37727773e-002 5.06286416e-003
      3.51445638e-002 6.08645640e-002 1.01125218e-001 -1.61226932e-002
      -2.96218339e-002 -2.50543072e-003 -4.23022658e-002
      -3.71834636e-002 -5.22231832e-002 -2.62073148e-002
      -6.69701956e-003 1.95001240e-003 1.05601037e-002 9.26712714e-003
      1.55853583e-002 -1.09908113e-003 -1.42253181e-002 -2.27945414e-003
      2.66853813e-003 2.44696010e-002 1.24565978e-002 3.77797894e-002
      1.04509769e-002 3.19986306e-002 1.64501043e-003 -2.51482287e-003
      -2.99398676e-002 5.13791898e-003 -1.77510979e-003 4.92264591e-002
      4.80533689e-002 3.44060510e-002 2.30339989e-002 2.21597422e-002
      -4.88027232e-003 -2.41464749e-002 3.16778198e-002 2.84363590e-002
      1.66883767e-002 -7.84116518e-003 7.35240849e-003 -6.23952784e-003
      -3.09474822e-002 -2.07580365e-002 -7.83863943e-003
      -1.91072728e-002 2.66838744e-002 1.97244212e-002 3.21692266e-002
      2.45667510e-002 -1.80284900e-003 7.91143812e-003 1.95261519e-002
      -1.06693665e-002 -6.76954398e-003 4.38743383e-002 1.65935066e-002
      9.65188537e-003 1.50476890e-002 -2.39396677e-003 -3.59945628e-003
      -1.37572540e-002 -3.08306254e-002 -3.08033847e-003 2.50384901e-002
      1.21265622e-002 2.54688803e-002 5.91898616e-003 1.38210030e-002
      2.23948285e-002 1.10278223e-002 -1.17865019e-002 -2.35515996e-003
      3.66832316e-002 2.18928512e-002 -1.18581252e-002 2.22130772e-002
      1.62774175e-002 8.15920997e-003 5.70053002e-004 -3.10171163e-003
      -1.07714077e-002 3.29956450e-002 -2.69039292e-002 -4.03100625e-002
      7.93407932e-002 3.67272571e-002 -2.76832003e-002 4.06305725e-003
      -4.03410709e-003 7.37005472e-003 7.09270760e-002 -5.25449887e-002
      1.04780600e-003 2.67991563e-004 2.50617266e-002 1.52598834e-002
      -1.05388919e-002 -1.79616045e-002 -1.64570995e-002 4.89385873e-002
      4.91178082e-003 -7.31202215e-002 3.94515693e-002 5.88438883e-002
      -1.62059609e-002 4.15143296e-002 1.71025824e-002 4.10005972e-002
      6.55410439e-002 -5.39249927e-002 -5.03616743e-002 2.85332296e-002
      5.48599325e-002 -4.18659262e-002 -6.63600722e-003 -2.84733698e-002
      6.86050132e-002 3.36329155e-002 -6.62692338e-002 -4.87101823e-002
      3.67567949e-002 1.67673174e-002 -2.35811491e-002 -3.23755667e-002
      -2.93560214e-002 3.84998135e-002 1.69301257e-002 -2.76580919e-002
      -9.83137116e-002 3.49184615e-003 2.39731800e-002 -6.18462414e-002
      -4.41925488e-002 -7.86843672e-002 3.18050571e-002 3.04046683e-002
      -9.88375545e-002 -6.88252747e-002 6.44491613e-003 2.39768364e-002
      -5.12376651e-002 -7.73063824e-002 -6.76198378e-002 2.92241108e-002
      2.12051850e-002 -6.06710836e-002 -3.23095582e-002 3.75399590e-002
      3.48356962e-002 8.60367715e-003 1.64121743e-002 -2.12321673e-002
      3.23574394e-002 3.88622545e-002 -1.65747385e-002 -6.76222816e-002
      1.23280855e-002 4.72620508e-004 -1.87107008e-002 -8.86100996e-003
      -2.45586857e-002 3.59269716e-002 -7.37636909e-003 -5.99728338e-002
      -3.09423227e-002 2.61748582e-002 2.56676544e-002 -2.39796955e-002
      -5.49168624e-002 -2.74920817e-002 2.37573050e-002 1.78743992e-002
      -2.08057519e-002 -8.30873698e-002 1.00457733e-002 -2.27222522e-003
      -3.56182531e-002 -5.68021908e-002 -5.36168925e-002 3.20725143e-002
      -3.53282653e-002 -7.50021562e-002 -4.52790707e-002
      -7.96500593e-003 -1.11008072e-002 -1.21253114e-002 1.79797281e-002
      5.23273041e-003 4.83045131e-002 -1.38902944e-002 -5.36991134e-002
      -4.01831530e-002 -3.95868458e-002 -2.11575404e-002
      -3.72702889e-002 -3.72094214e-002 -1.74512807e-002 8.65504891e-003
      -2.13477165e-002 -5.69702722e-002 -5.38480803e-002
      -5.36037888e-003 1.85779929e-002 -3.17003881e-003 -9.09159426e-003
      6.37679361e-003 1.54225435e-002 -3.96138579e-002 -7.48977810e-002
      -3.10561080e-002 -3.31937037e-002 4.73326724e-003 -1.95922572e-002
      -4.15385701e-002 -3.70894838e-003 1.08375456e-002 -4.06675301e-002
      -5.67253269e-002 -3.08244787e-002 -2.04150211e-002
      -2.03974172e-002 -3.01602148e-002 -5.19411415e-002
      -4.17568758e-002 -2.84870137e-002 -2.93241702e-002
      -2.90181339e-002 -4.15593898e-003 -1.79103538e-002 7.45965820e-003
      3.88920028e-003 1.67610440e-002 1.03822928e-002 2.83261361e-005
      -3.62644531e-003 9.96997394e-003 3.63585027e-003 -1.65012479e-002
      -3.30665261e-002 -2.97769457e-002 -7.69850686e-002
      -5.78296445e-002 -4.07161489e-002 -3.71625386e-002
      -2.16206200e-002 -8.68126377e-003 -3.59691866e-002
      -3.16067748e-002 -4.62064520e-002 -3.69528756e-002
      -1.76004991e-002 -2.58083064e-002 -3.61275226e-002
      -1.84517410e-002 -1.06736468e-002 -6.88359812e-002
      -1.96920745e-002 -1.30362716e-002 2.46794522e-003 8.73017218e-003
      -4.83348034e-004 -2.22644545e-002 1.44431479e-002 3.85177173e-002
      -2.46763714e-002 2.30688229e-002 2.00097561e-002 -4.85454015e-002
      3.92127922e-003 5.14452578e-003 -1.28829926e-002 2.18247939e-002
      -6.42815977e-003 -5.06460965e-002 -3.64010856e-002
      -3.04909237e-002 -6.17650561e-002 -3.15655731e-002 9.65766329e-003
      -4.37154621e-003 1.74609926e-002 4.98676077e-002 -1.86017491e-002
      -3.64826410e-003 -8.29467783e-004 -8.45065638e-002
      -1.58866737e-002 5.50796874e-002 6.24055639e-002 5.61032109e-002
      2.09282455e-003 -4.35765013e-002 3.63108851e-002 2.79670414e-002
      -5.27660325e-002 -1.89833641e-002 -4.60213190e-003
      -6.67560622e-002 -3.45747881e-002 -7.98689318e-004
      -2.22318321e-002 5.38918972e-002 4.38130572e-002 -9.23056062e-003
      1.44974794e-002 7.38049001e-002 1.29806390e-002 -1.19485110e-002
      1.15545234e-002 -4.87602763e-002 -2.70058215e-003 -8.00097268e-003
      -9.13685784e-002 -3.52148563e-002 2.89878268e-002 8.69079586e-003
      1.28651783e-002 2.96864696e-002 -1.11612733e-002 6.63059950e-002
      2.82419268e-002 -7.35574141e-002 2.00577397e-002 1.11554116e-001
      3.38147171e-002 9.52986907e-003 -2.16751955e-002 -5.63800111e-002
      2.59827133e-002 -6.72210194e-003 -3.25039811e-002 -4.13824134e-002
      3.07359882e-002 -2.85481326e-002 -3.80307138e-002 6.20864425e-003
      -2.60775480e-002 7.43416697e-002 5.92276715e-002 -6.59132563e-003
      -1.24902530e-002 2.11416613e-002 -3.22623849e-002 1.33888824e-002
      6.04421459e-003 -4.47231270e-002 4.85642068e-002 -6.86654821e-003
      -7.60563016e-002 -1.85200498e-002 4.54576500e-002 -7.95082562e-003
      -1.33065495e-003 2.07501538e-002 -3.09731960e-002 7.04352856e-002
      8.74941237e-003 -6.36494458e-002 -1.44386124e-002 3.27000581e-002
      5.83470752e-003 3.99052761e-002 -2.20520631e-003 -5.05444445e-002
      5.91931082e-002 2.76537035e-002 -2.28518303e-002 -3.56131420e-002
      8.09018034e-003 -2.31953114e-002 2.52518244e-002 -2.17461586e-002
      -4.64306921e-002 2.52819546e-002 1.37851825e-002 -3.39182019e-002
      -2.68678013e-002 2.64514145e-002 1.65921208e-002 1.55520961e-002
      4.50483896e-003 -3.60306650e-002 4.59685028e-002 1.10971276e-003
      -5.96505180e-002 -3.83823588e-002 3.33716609e-002 1.02408370e-002
      1.92528944e-002 -8.38081911e-003 -3.26462723e-002 2.22532712e-002
      9.27370414e-003 -5.12621216e-002 4.80768457e-003 4.81836610e-002
      6.00287430e-002 1.73379742e-002 1.07172532e-002 -2.04642918e-002
      -2.15916075e-002 -7.47519806e-002 -5.10287099e-002
      -6.49816245e-002 -4.26588999e-003 1.05683096e-002 4.92697582e-002
      1.96664575e-002 -3.06142680e-002 -1.83226634e-003 -3.89715284e-002
      -1.56389233e-002 -3.02089956e-002 9.54339188e-003 1.58564735e-003
      5.18492609e-002 2.02430245e-002 -1.08599858e-002 -1.30759468e-002
      -5.06447852e-002 -2.59807520e-002 -2.43883915e-002 4.06439006e-002
      5.11184372e-002 6.76921755e-002 4.44592834e-002 -1.56111643e-002
      1.66668519e-002 -1.71667989e-002 -5.99016901e-003 9.48381331e-003
      3.42326090e-002 3.44082676e-002 5.25719672e-002 2.14908570e-002
      -4.97880131e-002 2.07294151e-002 -2.09418628e-002 4.05138766e-004
      -3.87661234e-002 -7.05263228e-004 -4.40011732e-003 4.24519293e-002
      2.96156071e-002 -1.39674796e-002 4.55764793e-002 1.22786295e-002
      9.40535590e-003 -1.54296188e-002 3.79352309e-002 6.17054710e-003
      2.79993303e-002 -5.95710240e-003 -3.77666354e-002 2.15986688e-002
      -3.27994078e-002 1.34718409e-002 -1.92292575e-002 3.02320719e-002
      2.75050607e-002 1.08330250e-002 2.58265529e-002 -3.79389198e-003
      4.10023481e-002 3.52859311e-002 1.61435120e-002 1.49239106e-002
      6.51746616e-002 6.10664226e-002 5.90947010e-002 3.31734978e-002
      8.79827049e-003 3.03376392e-002 -3.56699899e-003 3.40005406e-003
      -5.27493656e-002 2.82472442e-003 -7.90398568e-003 2.39272546e-002
      3.82720344e-002 8.22726823e-003 4.83886115e-002 3.99533175e-002
      5.77986613e-002 2.70793913e-003 2.11042948e-002 -8.53769761e-003
      5.28748520e-002 2.48416699e-002 -8.91608433e-005 3.73774059e-002
      -4.15075198e-003 -3.51456963e-002 -4.33802605e-002
      -1.81455426e-002 2.05749329e-002 3.59127745e-002 6.26670942e-002
      -4.63657780e-003 6.56685829e-002 3.67332436e-002 -8.56376160e-003
      -3.28736044e-002 -1.87008847e-002 1.77117474e-002 3.44633423e-002
      1.25244642e-002 -2.15205811e-002 -3.07796174e-003 -6.60509942e-003
      -6.25182129e-003 -1.26468558e-002 -2.34592352e-002
      -2.62384415e-002 1.81939341e-002 4.60609533e-002 -1.14867138e-002
      4.22197841e-002 4.69403490e-002 2.05449127e-002 1.59927774e-002
      1.72933638e-002 2.93511786e-002 7.07680881e-002 5.75712591e-004
      -2.81218514e-002 2.02104840e-002 3.91696161e-003 -3.50069031e-002
      -5.65661825e-002 -3.58561315e-002 -1.70627143e-002 9.54917632e-003
      1.17806550e-002 -1.69600938e-002 4.77418229e-002 5.12587912e-002
      -1.01516480e-002 9.84810875e-004 8.89271963e-003 1.05984416e-002
      5.91913871e-002 8.03442672e-003 -2.98022032e-002 3.30002606e-002
      1.71602275e-002 1.24835204e-002 -2.40953732e-002 -2.33265627e-002
      -6.29410893e-003 3.05149239e-002 3.69230807e-002 1.02401124e-002
      3.11908610e-002 4.34024967e-002 2.44324561e-002 -1.14668123e-002
      1.17184166e-002 3.38715762e-002 3.62395532e-002 -2.88244486e-002
      -3.98634151e-002 2.51480043e-002 7.08871288e-003 -3.36116403e-002
      -2.82212477e-002 -2.08933875e-002 -2.38268990e-002 1.90132950e-002
      -5.15920203e-003 6.15975866e-003 3.83391753e-002 1.05702542e-002
      1.19436393e-002 -1.55965928e-002 3.08947004e-002 1.88903958e-002
      2.06908472e-002 1.07909460e-002 3.89821292e-003 -3.11275595e-003
      1.20402975e-002 2.18144991e-002 -2.43729074e-002 -9.14597698e-003
      1.09510531e-003 2.35410575e-002 9.79359727e-003 1.21000903e-002
      1.74739175e-002 9.72234085e-003 2.04685144e-002 -1.11631565e-002
      -1.46392332e-002 5.47577674e-003 3.48781422e-002 -3.08757089e-003
      1.06823258e-002 2.79672500e-002 2.67948881e-002 5.76766022e-003
      -3.61401998e-002 9.53002460e-003 8.20505433e-003 1.16096092e-002
      -1.62633490e-002 -1.36047340e-004 8.91060568e-003 4.64237258e-002
      3.73885818e-002 -1.09077739e-002 -4.80770599e-003 2.19794754e-002
      -2.10237782e-003 -2.75054686e-002 6.70341728e-003 2.20771190e-002
      -1.40248812e-004 2.27841977e-002 -7.13370135e-003 -5.80022018e-003
      1.78082418e-002 -5.49765863e-003 -7.61136338e-002 3.10653206e-002
      2.58686412e-002 -8.46722536e-003 5.25008105e-002 2.25619283e-002
      7.60448650e-002 3.38522419e-002 -4.91379760e-002 -5.61212189e-002
      2.46335287e-002 2.33795438e-002 1.54411756e-002 7.71430740e-003
      -1.68555956e-002 -1.92925856e-002 6.28093863e-003 -4.45375517e-002
      -8.67225453e-002 5.02592064e-002 2.84168888e-002 1.00265760e-002
      3.25294472e-002 2.01483071e-002 6.22102469e-002 4.90428694e-002
      -8.11327919e-002</_></support_vectors>
  <decision_functions>
    <_>
      <sv_count>1</sv_count>
      <rho>-4.4148505115566108e+000</rho>
      <alpha>
        1.</alpha>
      <index>
        0</index></_></decision_functions></my_svm>
</opencv_storage>
